%YAML:1.0
my_svm: !!opencv-ml-svm
   svm_type: C_SVC
   kernel: { type:LINEAR }
   C: 2.6699999999999999e+00
   term_criteria: { epsilon:1.1920928955078125e-07, iterations:1000 }
   var_all: 8192
   var_count: 8192
   class_count: 6
   class_labels: !!opencv-matrix
      rows: 1
      cols: 6
      dt: i
      data: [ 0, 1, 2, 3, 4, 5 ]
   sv_total: 15
   support_vectors:
      - [ 0., 0., 0., 0., 0., 0., 0., 0., 0., 0., 0., 0., 0., 0., 0., 0.,
          0., 0., 0., 0., 0., 0., 0., 0., 0., 0., 0., 0., 0., 0., 0., 0.,
          0., 0., 0., 0., 0., 0., 0., 0., 1.48316703e-05, 5.07763787e-07,
          2.98501072e-06, -5.58844204e-06, -5.63385129e-06,
          8.49627384e-07, 5.35394202e-06, 1.30050103e-06, 4.80863673e-05,
          2.29921693e-06, 2.34655431e-06, 1.39001099e-06, 2.29211728e-05,
          5.96920563e-06, 1.45449594e-05, 3.04601849e-06,
          -2.64103460e-06, -2.24049581e-05, -3.27409107e-05,
          -3.53543765e-05, -6.78612969e-06, -1.44790363e-06,
          -8.26122687e-06, -5.27282464e-06, 0., 0., 0., 0., 0., 0., 0.,
          0., 2.72760517e-05, -6.20854598e-06, -4.02949445e-06,
          -1.26614459e-05, 1.20384648e-05, -5.92275410e-06,
          -2.11678730e-06, -3.06043921e-06, 1.77355596e-05,
          -1.24873668e-05, -6.25211669e-06, -2.21196369e-05,
          -1.37261450e-05, -6.66521544e-07, -1.21730727e-05,
          -1.42579793e-05, -1.71239502e-04, 2.84482303e-05,
          2.69893353e-05, -2.14419633e-05, -1.17342795e-04,
          -3.42757485e-05, -1.10865467e-05, -7.63383287e-05, 0., 0., 0.,
          0., 0., 0., 0., 0., 2.25955373e-05, -1.42029977e-09,
          7.50140089e-06, -6.82372365e-06, -6.34016260e-06,
          -6.28042471e-06, 1.92341147e-07, 3.65072217e-09,
          2.35250591e-05, 9.13288773e-07, 5.55240513e-05,
          -1.72197779e-05, -1.02493595e-05, 8.82284439e-05,
          1.49613434e-05, -1.11593763e-05, -2.18219575e-05,
          1.74684228e-05, 1.00980316e-04, -2.62744766e-06,
          6.88438558e-06, 7.42797711e-05, 4.94528540e-05, 4.10963657e-05,
          0., 0., 0., 0., 0., 0., 0., 0., 0., 0., 0., 0., 0., 0., 0., 0.,
          0., 0., 0., 0., 0., 0., 0., 0., 0., 0., 0., 0., 0., 0., 0., 0.,
          -3.66817147e-07, 3.60671493e-08, 5.35537424e-07,
          -1.48645199e-06, -7.03435671e-06, 5.23541495e-08,
          8.44283136e-07, 2.24398320e-07, 3.65032975e-05, 2.76305605e-06,
          4.51958795e-06, -1.03227103e-06, 1.43982606e-05,
          2.60615820e-06, 1.06028856e-05, 3.75249954e-07, 1.91139643e-05,
          -6.16948500e-06, -1.12484395e-05, -1.24813050e-05,
          4.92054050e-06, 2.07577250e-06, 4.96797611e-07, 4.88414457e-07,
          -1.10397896e-05, -2.55158975e-05, -2.82502333e-05,
          -2.53734961e-05, -8.28795692e-06, -4.53986695e-06,
          -8.60383989e-06, -6.21743766e-06, -1.25696602e-06,
          -1.35370487e-06, 7.79130517e-07, -2.18484229e-06,
          -1.16987540e-05, -1.08001655e-06, 1.25895076e-06,
          2.33912573e-07, 4.34599715e-05, -7.37014079e-06,
          -9.84966573e-06, -1.10449237e-05, 3.10074793e-05,
          -5.21204493e-06, -5.39260282e-06, -6.03519584e-06,
          -6.51346854e-05, -2.09867926e-06, 3.19558021e-05,
          -1.63504210e-05, -9.09374430e-05, -6.39314158e-06,
          -1.25920460e-05, -3.67416287e-05, -1.09483255e-04,
          2.21239807e-05, 2.61086170e-05, -4.88602600e-05,
          -1.02353086e-04, -2.82566143e-05, -2.18759419e-06,
          -7.09392261e-05, -6.02768978e-07, -7.85863847e-07,
          2.23602387e-06, -1.95579469e-06, -8.45585873e-06,
          -1.58163584e-06, 3.30075409e-07, -3.75867700e-07,
          4.60330994e-05, -5.18429601e-07, 7.47083777e-06,
          -2.27537475e-05, 8.02594423e-06, 1.65129313e-06,
          -1.31366562e-06, -4.52900713e-06, -1.88808190e-05,
          7.14242606e-06, 1.16303359e-04, -5.07577397e-06,
          -2.61796868e-05, 1.43072379e-04, 5.45188450e-05,
          2.76607516e-05, -1.09729390e-05, 2.38258472e-05,
          1.95155117e-05, 3.11948388e-05, -4.26843035e-05,
          9.16087083e-06, 3.60210906e-05, 4.08161904e-05, 0., 0., 0., 0.,
          0., 0., 0., 0., 0., 0., 0., 0., 0., 0., 0., 0., 0., 0., 0., 0.,
          0., 0., 0., 0., 0., 0., 0., 0., 0., 0., 0., 0., 9.53700510e-06,
          3.30268449e-07, 2.80597237e-06, -1.97657414e-06,
          -1.94242375e-06, 9.66880265e-08, 3.45960257e-06,
          3.21580643e-07, 4.12808986e-05, 2.44011335e-06, 2.36224332e-06,
          6.97509222e-07, 1.79463896e-05, 4.14856322e-06, 9.35155367e-06,
          2.26040811e-06, -2.35731432e-06, -2.13191615e-05,
          -3.02226526e-05, -3.27191228e-05, -8.23182745e-06,
          -2.34590971e-06, -7.48517050e-06, -4.34843196e-06,
          -8.70899294e-06, -1.34846268e-05, -1.19471442e-05,
          -1.09222092e-05, -4.94611868e-06, -3.33743719e-06,
          -8.34721595e-06, -5.84253257e-06, 1.52683151e-05,
          -2.68984581e-06, -9.56293775e-07, -5.37654341e-06,
          -1.55482667e-06, -3.20850381e-06, -4.12112911e-07,
          -1.34522372e-06, 2.71789941e-05, -7.43061219e-06,
          -3.30982425e-06, -1.33937147e-05, -1.43845352e-06,
          -1.65150396e-07, -9.94320635e-06, -1.02378053e-05,
          -1.60450523e-04, 3.32416603e-05, 2.81274897e-05,
          -2.14623942e-05, -1.06878877e-04, -2.93356716e-05,
          -1.10390811e-05, -6.58697536e-05, -8.26688847e-05,
          4.43375648e-05, 1.95399189e-05, -1.74811266e-05,
          -3.18236416e-05, -8.18882836e-06, -3.29876207e-06,
          -2.68164367e-05, 1.24319040e-05, 4.09344125e-07,
          5.17167882e-06, -3.88704484e-06, -2.88023421e-06,
          -2.60921502e-06, 1.19820368e-06, 5.70366865e-07,
          2.48762171e-05, 2.46528839e-06, 4.12190566e-05,
          -2.24968189e-05, 1.01896749e-05, 5.95536440e-05,
          1.10232841e-05, -1.35523242e-05, -2.13638486e-05,
          1.38901814e-05, 1.00096033e-04, -1.27646206e-06,
          3.98117527e-06, 7.41450713e-05, 5.06100805e-05, 4.84481425e-05,
          -8.39522386e-07, 1.57062786e-05, -2.05909455e-05,
          4.20765332e-07, -2.85601182e-05, 1.84272778e-06,
          3.68942528e-05, 6.27484042e-05, 0., 0., 0., 0., 0., 0., 0., 0.,
          0., 0., 0., 0., 0., 0., 0., 0., 0., 0., 0., 0., 0., 0., 0., 0.,
          0., 0., 0., 0., 0., 0., 0., 0., 2.77739873e-05, 3.08885728e-06,
          3.38067844e-06, -5.87342811e-07, 1.14760160e-05,
          9.72383418e-07, 7.66402718e-06, 1.53516098e-07, 1.87602927e-05,
          -4.65011772e-06, -9.19831200e-06, -1.05345498e-05,
          4.50400512e-06, 2.05530205e-06, 5.84331474e-07, 9.48504635e-07,
          -1.31253701e-05, -2.87622843e-05, -3.13526398e-05,
          -3.03728448e-05, -9.77138734e-06, -4.67240488e-06,
          -1.02148770e-05, -8.90059619e-06, -2.15064529e-06,
          -3.08417862e-06, -2.75542538e-06, -5.23084736e-06,
          -2.74243985e-06, -2.58476643e-06, -8.22596940e-06,
          -3.48397475e-06, 4.44760299e-05, -2.87550256e-06,
          -5.58347210e-06, -6.93070797e-06, 2.38145458e-05,
          -4.07751304e-06, -2.54083670e-06, -3.33569346e-06,
          -4.56144808e-05, 1.75161415e-06, 3.95871939e-05,
          -1.53436013e-05, -8.34721504e-05, -2.42207329e-06,
          -9.65787422e-06, -2.88580140e-05, -8.25014795e-05,
          2.29761827e-05, 2.58795390e-05, -3.18601960e-05,
          -1.02448314e-04, -2.89725886e-05, -4.26454562e-06,
          -7.63130593e-05, 8.69925861e-06, 2.27376022e-05,
          -3.32875220e-06, -7.52322512e-06, 9.07572144e-07,
          -1.83785949e-06, -9.07256981e-06, -4.49168738e-06,
          3.76304015e-05, 3.94428632e-08, 5.88789499e-06,
          -1.43480283e-05, 3.35227105e-06, -5.28659371e-07,
          7.54163125e-07, -2.54178030e-06, -5.28363989e-06,
          7.21500919e-06, 1.10896355e-04, -8.02866361e-06,
          -2.95206573e-05, 1.26517727e-04, 4.68454018e-05,
          2.73126898e-05, -1.05559502e-05, 2.49446603e-05,
          2.79762953e-05, 2.71420195e-05, -3.43650863e-05,
          1.08924396e-05, 3.48953508e-05, 1.92389380e-05,
          -6.51484640e-07, 3.76885794e-07, -1.87172591e-05,
          -1.72306436e-08, 1.22837855e-05, 6.43039084e-06,
          3.32690661e-06, -1.51195763e-06, 0., 0., 0., 0., 0., 0., 0.,
          0., 0., 0., 0., 0., 0., 0., 0., 0., 0., 0., 0., 0., 0., 0., 0.,
          0., 0., 0., 0., 0., 0., 0., 0., 0., 3.57446697e-05,
          2.52842960e-06, 1.72239663e-06, 1.11455608e-06, 1.46072734e-05,
          1.91466688e-06, 7.10089944e-06, 1.63047650e-06,
          -3.89323213e-06, -2.18633468e-05, -2.98753675e-05,
          -3.25558467e-05, -7.64307970e-06, -1.98598650e-06,
          -8.06707976e-06, -4.82868882e-06, -1.09767925e-05,
          -1.88966733e-05, -1.41493956e-05, -1.55735634e-05,
          -6.67771974e-06, -4.92426761e-06, -1.01460919e-05,
          -6.82534892e-06, -6.33156731e-07, -1.71945589e-06,
          -1.68394092e-06, -3.47739115e-06, -1.83770953e-06,
          -1.21163998e-06, -5.73006264e-06, -2.80374047e-06,
          3.42482090e-05, -4.52595077e-06, -2.41210159e-06,
          -9.31793420e-06, 2.85716624e-06, 5.73086538e-07,
          -7.19942591e-06, -7.24940901e-06, -1.62619661e-04,
          3.05682006e-05, 2.83882036e-05, -2.32389029e-05,
          -1.02693863e-04, -2.57505399e-05, -9.38781795e-06,
          -6.10256175e-05, -5.50391160e-05, 4.90733837e-05,
          2.93114645e-05, -2.23511324e-05, -4.37604904e-05,
          -1.13786900e-05, -3.38857353e-06, -3.37567108e-05,
          -1.65450751e-06, -2.17100887e-06, 7.59094007e-07,
          -6.55102440e-06, -1.17352457e-07, -3.20719369e-06,
          -1.12822700e-05, -5.67615143e-06, 2.95628615e-05,
          1.60819059e-06, 3.04130281e-05, -2.59154695e-05,
          -5.04650734e-06, 4.32762899e-05, 7.79812126e-06,
          -1.23226619e-05, -2.05859833e-05, 1.17644586e-05,
          1.01455997e-04, -1.23987809e-06, -7.62669742e-07,
          7.83106807e-05, 5.71609417e-05, 5.62478490e-05, 9.20036746e-06,
          1.78887694e-05, -2.44019448e-05, 1.47810101e-06,
          -3.65001360e-05, 4.07508338e-07, 3.18767961e-05,
          5.96105856e-05, -2.69052634e-06, -4.84161137e-06,
          -5.08565745e-06, -2.49536674e-06, 1.17476122e-06,
          -3.07830123e-06, -7.34869855e-06, -5.35727168e-06, 0., 0., 0.,
          0., 0., 0., 0., 0., 0., 0., 0., 0., 0., 0., 0., 0., 0., 0., 0.,
          0., 0., 0., 0., 0., 0., 0., 0., 0., 0., 0., 0., 0.,
          1.92093121e-05, -2.57680904e-06, -6.06808680e-06,
          -8.29835699e-06, 5.42274847e-06, 1.75424327e-06,
          1.20283653e-06, 1.18413880e-06, -1.59580432e-05,
          -3.35996992e-05, -3.44930122e-05, -3.40133483e-05,
          -1.07483002e-05, -5.27882776e-06, -1.18740927e-05,
          -9.58003966e-06, -2.57705301e-06, -5.10468362e-06,
          -2.43400996e-06, -5.61579373e-06, -3.85192152e-06,
          -3.87523960e-06, -1.05304789e-05, -4.10701978e-06,
          -1.40417498e-07, -6.80350524e-07, 6.69122571e-08,
          -1.01089529e-06, -1.04542615e-07, 7.94194150e-08,
          -2.52282166e-06, -9.62173544e-07, -2.98312880e-05,
          4.82332371e-06, 4.13481939e-05, -1.59357696e-05,
          -7.26458311e-05, 1.51753454e-06, -6.67313770e-06,
          -2.11621882e-05, -6.13725933e-05, 3.03398901e-05,
          2.84913931e-05, -1.46575658e-05, -9.63295752e-05,
          -2.92307232e-05, -3.22516303e-06, -7.42030606e-05,
          3.08980520e-06, 3.46437300e-05, 1.48237166e-06,
          -7.69510916e-06, 6.28498924e-07, -1.38123357e-06,
          -1.02726517e-05, -6.22838616e-06, -7.28165219e-07,
          -3.31317608e-07, 1.33008416e-06, -2.26248585e-06,
          -4.74200128e-08, -5.71780959e-07, -5.26901295e-06,
          -3.02423041e-06, 2.96933081e-06, 5.76409093e-06,
          9.95351584e-05, 1.92948414e-06, -1.99425722e-05,
          1.10905130e-04, 4.17179908e-05, 2.17093911e-05,
          -3.99606324e-06, 3.04975456e-05, 3.97473086e-05,
          2.61819023e-05, -2.37741915e-05, 1.32047307e-05,
          3.71505885e-05, 1.28844986e-05, -5.13452687e-06,
          9.74871000e-07, -2.25567546e-05, 2.57388524e-06,
          1.28731726e-05, 8.84490055e-06, 7.22818686e-06, 5.85148700e-06,
          -1.29502746e-06, -1.41640965e-06, -6.49149570e-07,
          -1.58636419e-06, -1.97252052e-06, -2.41836551e-06,
          -2.44249281e-06, -1.62097047e-06, 0., 0., 0., 0., 0., 0., 0.,
          0., 0., 0., 0., 0., 0., 0., 0., 0., 0., 0., 0., 0., 0., 0., 0.,
          0., 0., 0., 0., 0., 0., 0., 0., 0., -4.94283086e-06,
          -2.02470874e-05, -2.71039935e-05, -3.16271289e-05,
          -7.86930559e-06, -1.31942625e-06, -6.84060387e-06,
          -4.87511306e-06, -1.48648214e-05, -2.32820748e-05,
          -1.70543499e-05, -1.89338098e-05, -8.74996294e-06,
          -5.83255905e-06, -1.32377982e-05, -7.90887043e-06,
          -2.01976468e-06, -3.02125136e-06, -1.95913867e-06,
          -4.65876610e-06, -2.61460787e-06, -1.70804981e-06,
          -9.24495998e-06, -3.88217586e-06, 6.62905819e-08,
          -4.88520129e-07, -6.70716886e-08, -2.04145451e-07,
          -4.88560872e-08, -1.66912017e-07, -3.98512441e-07,
          -3.15791084e-07, -1.64016034e-04, 2.89948766e-05,
          3.67921348e-05, -1.97794288e-05, -1.00334626e-04,
          -1.94254535e-05, -7.93560048e-06, -5.44220238e-05,
          -2.40819572e-05, 4.50316948e-05, 4.78871589e-05,
          -2.29298930e-05, -4.77204121e-05, -1.33723634e-05,
          -3.29273985e-06, -3.83282131e-05, -1.98692715e-06,
          -1.20949687e-06, 4.19620801e-06, -7.47664035e-06,
          8.09412143e-07, -5.09097072e-06, -1.78009850e-05,
          -8.92255048e-06, -9.03170374e-08, 3.97698784e-07,
          1.06551170e-06, -4.15282358e-07, -7.20011656e-07,
          -9.66702828e-07, -1.10606663e-06, 6.45807120e-07,
          -2.43573977e-05, 1.32839750e-05, 1.11394569e-04,
          1.00191528e-05, -5.25463383e-06, 8.81090891e-05,
          6.71216549e-05, 7.11696703e-05, 1.49610960e-05, 2.41723628e-05,
          -3.09253701e-05, 6.25136227e-06, -3.96651558e-05,
          2.85854696e-07, 2.83297650e-05, 4.49925828e-05,
          -3.52260895e-06, -7.65967343e-06, -4.65361745e-06,
          -2.74338902e-07, 4.41158363e-06, -2.86460204e-06,
          -9.89544969e-06, -7.91450475e-06, -1.00257807e-06,
          4.25372718e-07, -6.57530208e-08, -3.03180030e-07,
          -4.18346019e-07, -7.17700630e-07, -7.00522662e-07,
          -2.28850425e-07, 0., 0., 0., 0., 0., 0., 0., 0., 0., 0., 0.,
          0., 0., 0., 0., 0., 0., 0., 0., 0., 0., 0., 0., 0., 0., 0., 0.,
          0., 0., 0., 0., 0., -1.84360379e-05, -3.90393398e-05,
          -4.02574406e-05, -4.36025985e-05, -1.37277557e-05,
          -6.65985999e-06, -1.43674561e-05, -1.17740838e-05,
          -4.83399617e-06, -8.92102889e-06, -1.37770019e-06,
          -7.69296912e-06, -5.24637335e-06, -5.54710550e-06,
          -1.68882179e-05, -6.62579805e-06, -1.14856630e-06,
          -1.08606685e-06, -1.44253827e-08, -7.44741214e-07,
          -8.32691114e-07, -3.97920729e-07, -4.48109904e-06,
          -2.30018964e-06, 0., 0., 0., 0., 0., 0., 0., 0.,
          -4.81440366e-05, 3.98234661e-05, 3.84543819e-05,
          -1.72642904e-05, -9.21105238e-05, -3.27442285e-05,
          -8.29012788e-06, -7.44237987e-05, 2.22065114e-06,
          6.16291436e-05, 1.22462934e-05, -7.13435475e-06,
          -1.28854435e-06, -2.03033892e-06, -1.59202773e-05,
          -9.94545917e-06, -9.11789073e-07, 2.51664488e-07,
          6.72072019e-06, -1.63478558e-06, 1.10815040e-06,
          -1.59870353e-06, -1.17572690e-05, -5.49257038e-06, 0., 0., 0.,
          0., 0., 0., 0., 0., 1.88727256e-06, 3.89539273e-05,
          6.27564586e-05, 2.71302633e-05, -7.98770998e-06,
          1.60328364e-05, 3.93324844e-05, 1.07437745e-05,
          -7.83898486e-06, 2.56324324e-06, -2.75925377e-05,
          4.73821729e-06, 1.10756982e-05, 1.24118151e-05, 1.24377284e-05,
          2.17242668e-05, -2.00662998e-06, -2.36223059e-06,
          3.28922852e-07, -2.61369314e-06, -2.10489225e-06,
          -3.78615937e-06, -4.75546221e-06, -3.54483268e-06, 0., 0., 0.,
          0., 0., 0., 0., 0., 0., 0., 0., 0., 0., 0., 0., 0.,
          2.59601279e-06, 4.46306899e-07, 1.21887672e-06,
          -3.41903871e-07, -1.48218680e-06, 6.74307969e-08,
          7.38738777e-07, 9.61179580e-07, 8.31040597e-06, 1.42360477e-06,
          1.55223711e-06, 2.27175815e-06, 4.18761920e-06, 1.90368280e-06,
          2.21986579e-06, 1.86024477e-06, 7.20270975e-07,
          -2.18816183e-07, -1.08214657e-07, -6.19478442e-08,
          1.20178015e-06, 1.32293977e-07, -1.09230803e-06,
          -3.71680869e-07, 0., 0., 0., 0., 0., 0., 0., 0.,
          1.95272878e-05, -2.40954046e-06, 1.04229844e-06,
          -8.79988693e-06, -8.89983221e-06, -2.28792237e-06,
          4.19850721e-06, -5.87873274e-07, 4.51590095e-05,
          -5.05800381e-06, -1.11358186e-05, -1.58926396e-05,
          1.58345065e-05, 4.06883686e-07, 5.58575630e-06,
          -3.93805658e-06, -7.15053538e-05, -3.57062017e-05,
          -3.80337005e-05, -9.65639920e-05, -6.97934083e-05,
          -1.90305564e-05, -2.12752511e-05, -3.84221712e-05, 0., 0., 0.,
          0., 0., 0., 0., 0., 2.21105347e-05, -3.71820579e-06,
          -1.52842324e-06, -8.10518759e-06, 1.65041956e-06,
          -6.17720343e-06, -5.03752835e-06, -2.40847112e-06,
          8.86717226e-06, -6.73119894e-06, 2.52223308e-05,
          -1.12271828e-05, -2.53461593e-07, 3.04378918e-05,
          -7.75953504e-06, -1.05836771e-05, -4.81956595e-05,
          6.13793600e-05, 7.26693252e-05, -1.09775710e-05,
          -1.99377973e-05, 2.61298028e-05, 2.93737285e-05,
          2.08652864e-06, 0., 0., 0., 0., 0., 0., 0., 0., 1.70522853e-05,
          6.22761888e-07, 1.13625356e-05, -5.41028021e-06,
          -1.08882414e-05, -5.36311245e-06, 5.97635244e-06,
          4.16215556e-07, 2.14047523e-05, -7.54602524e-06,
          3.79010417e-05, -2.57165921e-05, -7.94343123e-06,
          5.31419901e-05, 7.67105303e-06, -1.94135046e-05,
          -9.51263974e-06, -1.39997765e-05, 2.54396018e-05,
          -1.66864702e-05, -8.60561886e-06, 4.24349273e-05,
          6.39990731e-06, 6.72941906e-06, 0., 0., 4.02884297e-07, 0.,
          -1.18769970e-06, 2.25474057e-08, 0., 0., 5.45057264e-06,
          5.35504739e-07, 1.62383765e-06, 3.75037814e-07, 1.96706515e-06,
          9.29018370e-07, 1.92484845e-06, 4.60694849e-07, 3.91296135e-06,
          1.68876170e-07, 7.65383163e-07, 6.13010457e-07, 2.13477188e-06,
          3.08886229e-07, 8.98429846e-08, -5.17471108e-07,
          -1.09043377e-07, -1.10669895e-07, -2.34736504e-07,
          -1.00369232e-06, -1.32987426e-08, -2.64239844e-07,
          -4.51684173e-07, -9.12158725e-07, -3.53883820e-07,
          -4.19928710e-07, 5.55082124e-07, -2.13892326e-06,
          -1.01818778e-05, -6.55799056e-07, 8.77827176e-07,
          7.96831785e-07, 4.50858643e-05, -1.13640431e-06,
          -1.19292463e-06, -6.67176710e-06, 1.69588748e-05,
          -8.53139227e-07, 5.12157339e-06, -1.84174246e-06,
          3.46566844e-06, -1.41371083e-05, -2.65592935e-05,
          -5.56650048e-05, -3.44644686e-05, -5.23898325e-06,
          -8.95645917e-06, -1.58428593e-05, -9.25312415e-05,
          -3.64723201e-05, -2.35322441e-05, -6.18883569e-05,
          -4.64841978e-05, -1.92206135e-05, -2.05908946e-05,
          -3.58646139e-05, -9.25068150e-07, -5.80911262e-07,
          4.96642087e-07, -1.70538055e-06, -1.00045036e-05,
          -1.63500545e-06, -1.06693130e-06, -5.27035581e-07,
          4.46589293e-05, -4.67883820e-06, -6.29667284e-06,
          -1.37746620e-05, 2.53640173e-05, -5.42861562e-06,
          -7.35829508e-06, -4.46320564e-06, -5.49112956e-05,
          1.18185908e-05, 1.03118982e-04, -2.11472579e-05,
          -4.81778770e-05, 5.69280710e-05, 1.84974615e-05,
          -7.01254930e-06, -2.94832171e-05, 7.83083524e-05,
          9.04167027e-05, 1.87708210e-05, -4.88278092e-05,
          3.66853533e-06, 3.07444679e-05, 2.66808420e-05,
          -3.62008414e-08, -7.42987041e-08, 1.70449164e-06,
          -1.42550516e-06, -8.41171641e-06, -1.36918277e-06,
          1.02087699e-06, -6.75491947e-07, 3.78778350e-05,
          -6.50375398e-07, 1.29765976e-05, -1.33461472e-05,
          -2.60382803e-05, -3.17469926e-07, 3.76076650e-06,
          -4.70221448e-06, 1.40795555e-05, -1.38992327e-05,
          3.84466366e-05, -2.69595585e-05, -1.43545813e-05,
          8.13483130e-05, 1.17317622e-05, -6.94088067e-06,
          -1.78380105e-05, -7.59668183e-06, -3.19400351e-05,
          -2.89308027e-05, -6.16879188e-05, -1.90006103e-05,
          6.58184899e-06, 4.50962671e-06, 1.29884256e-06, 4.54272282e-07,
          6.16553280e-07, -2.98687013e-07, -4.77391495e-07,
          2.45594435e-07, 3.39789864e-07, -2.19601759e-07,
          7.28840587e-06, 1.05218294e-06, 1.36449739e-06, 1.41094256e-06,
          3.29108502e-06, 7.47262163e-07, 1.90822152e-06, 5.09319420e-07,
          1.10663507e-06, -2.18816183e-07, -3.81173663e-07,
          -2.13115712e-07, 1.01969260e-06, 2.96712486e-08,
          -1.07937467e-06, -9.53381004e-07, -5.61057050e-07,
          -5.30311979e-07, -4.16824008e-07, -1.39130873e-06,
          -1.19149172e-06, -1.19149172e-06, -2.80851395e-07,
          -1.85936926e-06, 1.19762981e-05, -8.69661164e-07,
          1.70540397e-06, -3.96890709e-06, -3.96084170e-06,
          -1.08704728e-06, 3.23624886e-06, -2.17830816e-07,
          4.51468586e-05, -1.33782885e-06, -6.86311887e-06,
          -9.64410083e-06, 1.50154137e-05, -1.89468437e-07,
          3.58431316e-06, -2.44024841e-06, -6.71269881e-05,
          -3.06677321e-05, -3.14763383e-05, -8.64426620e-05,
          -6.62514576e-05, -1.73159769e-05, -2.00627092e-05,
          -3.65637970e-05, -4.83966833e-05, -1.11776808e-05,
          -7.63368007e-06, -1.96961391e-05, -1.54654917e-05,
          -9.67135111e-06, -1.49302650e-05, -1.78450682e-05,
          1.23596219e-05, -1.79675499e-06, 3.37163016e-07,
          -4.21822460e-06, -2.97470569e-06, -3.30722492e-06,
          -2.32734965e-06, -7.35505523e-07, 1.73760563e-05,
          -3.08585822e-06, 1.87036585e-05, -1.07334308e-05,
          2.62883032e-06, 2.27913442e-05, -6.05558307e-06,
          -1.06119614e-05, -5.09788151e-05, 5.24969255e-05,
          7.79612892e-05, -1.11914196e-05, -2.32325565e-05,
          2.98282102e-05, 3.00152187e-05, 1.28014399e-05,
          -1.37788184e-05, 6.27951085e-05, 7.03616752e-06,
          -3.75995590e-08, -2.73331279e-05, 6.65877815e-06,
          2.75871334e-05, 1.96036744e-05, 8.94694767e-06, 8.50180811e-07,
          6.87193233e-06, -3.10789142e-06, -3.80517872e-06,
          -1.95412849e-06, 4.28288786e-06, -1.82853640e-07,
          3.03564721e-05, -4.92605614e-06, 2.84037760e-05,
          -1.53265864e-05, 1.05227373e-05, 3.71256501e-05,
          5.68015685e-06, -1.56098231e-05, 7.83012638e-07,
          -1.17035615e-05, 2.31406484e-05, -1.13214619e-05,
          -1.84138407e-05, 3.63172185e-05, 6.09709195e-06,
          5.53832115e-06, -4.01225261e-05, -6.65931930e-06,
          -4.47227558e-06, -2.85049123e-06, -3.31761730e-05,
          -1.19513470e-05, 1.50984206e-05, 8.16314969e-06,
          3.93804703e-06, 1.27980400e-06, 1.36441986e-06, 1.07718608e-06,
          1.07123742e-06, 9.20055641e-08, 1.44125784e-06,
          -1.47142218e-08, 3.88553144e-06, 1.03706832e-07,
          3.77690782e-07, 1.07224014e-06, 2.19470417e-06, 8.51212718e-08,
          8.90850686e-07, 3.06378212e-07, 3.43818300e-07,
          -1.13152723e-07, -1.32283262e-07, -6.00808050e-07,
          -8.22335267e-08, 1.67379177e-08, -1.31083596e-06,
          -9.42141355e-07, 1.88382529e-07, -1.00791169e-06,
          -7.05240552e-07, -8.29901069e-07, -4.00991098e-07,
          -1.32011212e-06, -1.81216876e-06, -9.35739990e-07,
          3.73114017e-05, 2.00053549e-07, -1.18965907e-07,
          -3.67662960e-06, 1.29277114e-05, -1.09428447e-06,
          3.82435292e-06, -1.23334894e-06, 6.50458560e-06,
          -1.01060787e-05, -2.03914151e-05, -4.62202734e-05,
          -2.81399261e-05, -5.15754982e-06, -7.04859076e-06,
          -1.38851592e-05, -1.04872866e-04, -3.91300127e-05,
          -2.32352686e-05, -6.92417889e-05, -5.44902650e-05,
          -2.10456874e-05, -2.32102266e-05, -4.14771202e-05,
          -7.38105882e-06, 1.50638130e-06, -1.89389868e-06,
          -7.34728019e-06, -3.53722226e-06, -3.60204876e-06,
          -1.12817743e-05, -6.97997666e-06, 4.24864411e-05,
          -2.08884489e-06, -2.48832657e-06, -8.92386925e-06,
          1.67372782e-05, -3.36161611e-06, -4.50470498e-06,
          -3.39235930e-06, -4.06532890e-05, 1.13833294e-05,
          9.68840250e-05, -1.63788445e-05, -4.73641994e-05,
          5.21330112e-05, 1.73043863e-05, -9.72894565e-09,
          -2.14055726e-05, 7.56624213e-05, 8.95150224e-05,
          1.92639727e-05, -4.39930700e-05, 5.57818521e-06,
          3.03335491e-05, 2.61472960e-05, 2.77443269e-05, 2.02274041e-05,
          -1.23682748e-05, -2.51741744e-06, 9.02406828e-06,
          4.25334156e-06, -9.03480554e-07, 1.71544787e-06,
          2.66516327e-05, 3.75154258e-07, 9.48714114e-06,
          -7.64985998e-06, -2.09144109e-05, -6.55961799e-07,
          3.29868180e-06, -1.30838919e-06, 1.24715079e-05,
          -1.18080998e-05, 3.36398625e-05, -9.99993699e-06,
          -2.02603514e-05, 7.29617823e-05, 9.70700694e-06,
          -1.29930895e-05, -1.82077601e-05, -3.09022903e-06,
          -3.27527123e-05, -2.57804186e-05, -5.85332491e-05,
          -2.07616649e-05, 3.01360433e-06, 4.10428720e-06,
          -4.38222814e-05, -7.46857359e-06, 2.63999937e-05,
          2.02015290e-05, 3.33005960e-06, 4.69058023e-06, 1.88005670e-05,
          -3.26523582e-06, 6.37104449e-06, 4.27495479e-07,
          1.61501373e-06, 1.09611585e-06, 2.85139163e-06, 5.85762166e-07,
          1.93711935e-06, 1.76064077e-07, 1.10663507e-06,
          -7.29883709e-07, -3.81173663e-07, -6.19478442e-08,
          1.03262596e-06, 4.17363594e-07, -2.17462525e-06,
          -9.53381004e-07, -4.38740457e-08, -9.06053117e-08,
          3.70003335e-08, -3.94004402e-08, -4.68597619e-07,
          -9.92876721e-07, -1.28430599e-06, -1.16059755e-06,
          -3.38338509e-07, -1.02006288e-06, -3.78699070e-07,
          -1.20248956e-06, -3.10009796e-07, -6.32064769e-07,
          -4.32713421e-07, -8.96367112e-07, 4.35328548e-05,
          -2.17161710e-06, -4.72848433e-06, -6.67197583e-06,
          1.21223657e-05, -1.02044766e-07, 2.29710986e-06,
          -3.04020068e-06, -6.67647546e-05, -3.00904139e-05,
          -2.94340316e-05, -8.28772754e-05, -6.69906876e-05,
          -1.74855850e-05, -1.95530520e-05, -3.74403862e-05,
          -6.43235035e-05, -1.23648124e-05, -9.50623780e-06,
          -2.70779601e-05, -2.12614268e-05, -1.36332010e-05,
          -1.95977573e-05, -2.40579902e-05, -1.13106830e-06,
          -1.46397952e-06, -1.61909577e-06, -5.41813142e-06,
          -2.85452256e-06, -2.80536506e-06, -9.10947529e-06,
          -4.57747910e-06, 2.62277499e-05, -1.48760387e-06,
          1.28804168e-05, -9.98607266e-06, 1.67162523e-06,
          1.62333035e-05, -4.77251524e-06, -8.85821646e-06,
          -6.47014022e-05, 4.55431036e-05, 8.41688307e-05,
          -1.37589459e-05, -2.79246306e-05, 3.28069436e-05,
          3.30658586e-05, 1.93105352e-05, -7.24795018e-06,
          7.52860433e-05, 1.00212010e-05, 3.12043881e-07,
          -3.49572656e-05, 5.56404393e-06, 2.92030672e-05,
          2.74328304e-05, -2.17740444e-06, -4.17647743e-06,
          -2.04679554e-06, -1.51179017e-06, 1.68285806e-06,
          -3.07658570e-06, -1.08646882e-05, -5.80701453e-06,
          3.01534710e-05, -2.82708561e-06, 1.87131882e-05,
          -1.14498898e-05, -3.54982694e-06, 2.57218089e-05,
          3.31940441e-06, -1.13962333e-05, 7.76842808e-06,
          -1.12857970e-05, 2.26574939e-05, -7.46699561e-06,
          -2.53946946e-05, 3.35714103e-05, 2.95946711e-06,
          3.12835436e-06, -2.41483904e-05, -8.30745830e-06,
          -8.28307293e-06, -1.32047981e-05, -4.10325119e-05,
          -1.51544837e-05, 1.51906934e-05, 6.99872407e-06,
          -2.81297815e-07, -9.88147008e-07, 3.97269287e-05,
          1.27141793e-05, 1.23445636e-06, 1.89853131e-06, 2.34894542e-05,
          8.82935637e-06, 4.27189570e-06, 2.09370299e-07, 8.75825037e-07,
          1.17790364e-06, 1.63252128e-06, 2.27741083e-07, 1.15542051e-07,
          -1.12123985e-07, 3.44183718e-07, -6.24220263e-07,
          -1.57105191e-07, -5.05583046e-07, -3.59375690e-07,
          -9.25380220e-07, -1.63986022e-06, -8.12891869e-07,
          -4.44499733e-07, -4.78297636e-07, -3.56947140e-07,
          -1.29476723e-06, -6.51655057e-07, -2.89731588e-07,
          -1.92314747e-06, -1.39579379e-06, 0., -5.11067526e-07,
          -4.71999925e-07, -5.67412883e-07, -1.28757407e-07,
          -1.49369498e-07, -5.13920043e-07, -9.24866317e-09,
          9.52555092e-06, -7.03574915e-06, -1.35385371e-05,
          -3.45606059e-05, -2.04858825e-05, -2.95770087e-06,
          -4.29994225e-06, -1.10634210e-05, -1.12814712e-04,
          -3.68764486e-05, -2.15563541e-05, -7.46708683e-05,
          -5.98778424e-05, -2.32736274e-05, -2.56399890e-05,
          -4.73507353e-05, -1.45228687e-05, 1.89073899e-06,
          -1.52015730e-06, -8.66264236e-06, -5.34566925e-06,
          -5.89049660e-06, -1.60612235e-05, -9.82823531e-06,
          -1.02017873e-06, -1.73957176e-06, 4.41111467e-07,
          -1.36897552e-06, 1.34949205e-10, 4.73258268e-08,
          -3.71290912e-06, -2.43378963e-06, -3.51887611e-05,
          9.84575672e-06, 9.07193389e-05, 5.67636562e-07,
          -4.16344337e-05, 4.75685483e-05, 1.46465081e-05,
          1.18495768e-06, -1.58459898e-05, 7.15283022e-05,
          8.46368566e-05, 1.55442176e-05, -3.65642918e-05,
          6.34924845e-06, 3.25845358e-05, 2.90239968e-05, 2.99815238e-05,
          2.89260952e-05, -1.46595694e-05, -1.06236575e-06,
          1.17210120e-05, 7.37626533e-06, 1.78476125e-06, 5.33931325e-06,
          -9.17988700e-07, -1.17412276e-06, -8.49094477e-07,
          -1.09107123e-06, 1.56831433e-07, -1.44095577e-06,
          -4.82520909e-06, -2.68770737e-06, 1.03932871e-05,
          -1.10870078e-05, 2.99377643e-05, 4.37919425e-06,
          -2.02347564e-05, 6.17458718e-05, 7.67060556e-06,
          -1.41608944e-05, -1.64813682e-05, 6.40131930e-07,
          -2.91050110e-05, -2.09557638e-05, -5.12617480e-05,
          -2.12483083e-05, -1.03575087e-06, 3.23852555e-06,
          -6.12141812e-05, -8.00686394e-06, 3.88184380e-05,
          2.66073512e-05, 2.12592408e-06, 6.12777012e-06, 2.75463262e-05,
          -2.36646770e-06, 4.13469877e-07, 1.00269574e-06,
          2.46459549e-05, 4.53272060e-06, -1.13812143e-06,
          -8.60138485e-08, 1.64512276e-05, 6.75594538e-06,
          1.11956842e-06, -7.29883709e-07, -3.81173663e-07,
          -1.34813419e-07, 1.36264475e-06, 4.17363594e-07,
          -1.32297373e-06, -9.53381004e-07, -7.11210021e-07,
          -7.80488676e-07, 7.32431715e-07, -7.32405169e-07,
          -7.75030230e-07, -3.63379257e-07, -2.31585068e-06,
          -1.56148678e-06, -9.66870886e-08, -8.34932791e-07,
          2.97618584e-07, -2.20449252e-07, -7.64807794e-07,
          -1.12161024e-06, -2.06493655e-06, -1.55427028e-06, 0., 0., 0.,
          0., 0., 0., 2.25474057e-08, 0., -6.59272409e-05,
          -2.82714991e-05, -2.41255584e-05, -7.82258066e-05,
          -6.50899601e-05, -1.67042599e-05, -1.86418238e-05,
          -3.74962874e-05, -8.17287946e-05, -1.19124770e-05,
          -6.63152559e-06, -3.41888408e-05, -2.82979272e-05,
          -1.75281166e-05, -2.41861999e-05, -3.31988413e-05,
          -2.74703598e-06, -2.78098400e-06, -1.20080858e-06,
          -7.99385725e-06, -3.74326805e-06, -3.84980240e-06,
          -1.61618100e-05, -7.47133254e-06, -4.19381337e-07,
          3.86753982e-07, 9.17793272e-08, -5.35638719e-07,
          -5.52275253e-07, -3.09010666e-08, -1.42782903e-06,
          -1.05223216e-06, -8.42122681e-05, 4.26059742e-05,
          9.68421300e-05, -1.36517829e-05, -3.27069138e-05,
          3.89483575e-05, 3.83370607e-05, 3.16401711e-05,
          -7.43915552e-06, 7.92652645e-05, 1.67545531e-05,
          3.96349742e-06, -3.43604443e-05, 7.15521446e-06,
          2.58568689e-05, 3.92390066e-05, -1.94609015e-06,
          -5.80160440e-06, -2.14940042e-06, -1.73919045e-06,
          4.41245902e-06, -3.77810102e-06, -1.68005481e-05,
          -9.82032725e-06, -2.92359346e-07, 1.29198241e-07,
          -4.95317806e-07, -5.95918737e-09, -7.11253634e-08,
          -7.78269282e-07, -5.35648383e-07, -6.99738678e-07,
          2.20082056e-05, -9.54726875e-06, 1.76670474e-05,
          7.56248619e-06, -2.06029490e-05, 3.30091170e-05,
          2.91364799e-08, 1.37694033e-05, -8.87918941e-06,
          -9.33701813e-06, -1.55648995e-05, -1.84199889e-05,
          -4.87118159e-05, -1.87919504e-05, 1.45388994e-05,
          3.97934355e-06, -6.51332584e-07, -9.18690432e-07,
          3.51152266e-05, 2.19654030e-05, 2.94222923e-06, 4.74288981e-06,
          3.72873983e-05, 1.44813566e-05, 2.25474057e-08, 3.09595158e-08,
          5.32575541e-06, 1.89765046e-07, -1.04827177e-06,
          -6.05007926e-07, 2.85844612e-06, 1.53792632e-06,
          1.14894590e-06, -4.05047388e-07, -7.91642492e-07,
          -2.68446030e-07, -6.48557204e-07, -1.59973433e-06,
          -1.56098554e-06, -2.20275365e-06, 1.85298546e-07,
          -5.17261753e-07, 5.62841194e-07, -1.37507197e-06,
          -7.76390493e-07, -1.16153808e-06, -3.29755153e-06,
          -1.23213454e-06, -1.05150730e-06, -1.28208583e-07,
          -8.44919384e-07, -1.04175444e-06, -3.10009796e-07,
          -4.51116904e-07, -8.93546087e-07, -1.10445819e-06, 0., 0., 0.,
          0., 0., 0., 0., 0., -1.30204746e-04, -2.98288742e-05,
          -1.16841929e-05, -8.33191443e-05, -7.26836442e-05,
          -2.77305862e-05, -3.21667685e-05, -5.89886695e-05,
          -2.45733754e-05, 6.06384037e-06, 3.94486051e-06,
          -1.03396751e-05, -8.86241287e-06, -9.52359551e-06,
          -2.43385330e-05, -1.56489223e-05, -2.13979320e-06,
          -5.69803262e-07, 2.37054928e-06, -2.02390220e-06,
          -6.49905985e-07, -9.88301395e-07, -7.87012414e-06,
          -5.12083034e-06, 0., 0., 0., 0., 0., 0., 0., 0.,
          -1.11509444e-05, 7.40482064e-05, 8.02026188e-05,
          6.82443942e-06, -2.53400794e-05, 6.25709845e-06,
          3.43286956e-05, 2.67949035e-05, 1.92570024e-05, 5.01622744e-05,
          -1.39803460e-05, 1.37597726e-06, 1.33039875e-05,
          1.21592930e-05, 3.01820637e-06, 1.27941667e-05,
          -1.24171709e-06, -2.44936064e-06, 1.03002992e-06,
          -1.33491358e-06, 2.19928296e-07, -3.00808824e-06,
          -1.07266724e-05, -4.93000925e-06, 0., 0., 0., 0., 0., 0., 0.,
          0., -1.42958943e-05, 4.76381820e-06, -2.51758975e-05,
          -1.50406286e-05, -4.27057166e-05, -2.40646168e-05,
          -9.36614924e-06, 1.50308745e-06, -7.80336777e-05,
          -9.37283858e-06, 3.66180102e-05, 3.91676731e-05,
          -2.41470661e-06, 7.93693835e-06, 4.05286264e-05,
          2.52311406e-06, 3.29967548e-07, 1.32173261e-06, 5.01754475e-05,
          1.13171109e-05, -1.53981205e-06, 1.46203445e-06,
          3.31764313e-05, 1.25484466e-05, 0., 0., 0., 0., 0., 0., 0., 0.,
          0., 0., 0., 0., 0., 0., 0., 0., 7.47960803e-06, 9.10169490e-07,
          2.12946270e-06, -3.55019711e-06, -2.03933018e-06,
          -1.82211135e-08, 3.03107345e-06, 1.16185340e-07,
          2.51592337e-05, 1.17577736e-06, 1.60091906e-06, 7.34175217e-07,
          1.14423301e-05, 2.41874091e-06, 7.16540353e-06, 1.12160978e-06,
          -6.42176417e-07, -9.63469847e-06, -1.43461275e-05,
          -1.28695438e-05, -2.16912508e-06, -8.28573889e-07,
          -3.51721155e-06, -1.88911554e-06, 0., 0., 0., 0., 0., 0., 0.,
          0., 1.70475814e-05, -3.68321253e-06, -1.64236803e-06,
          -6.71408134e-06, -2.78478706e-06, -3.40938755e-06,
          -3.27578874e-07, -2.78081711e-06, 2.69129450e-05,
          -6.75534238e-06, -4.53958410e-06, -1.21449821e-05,
          -4.38493271e-06, -2.65917924e-06, -8.47168030e-06,
          -8.79814343e-06, -1.66752608e-04, 1.08461900e-05,
          2.25536569e-05, -3.50855989e-05, -1.25576538e-04,
          -2.45521605e-05, -6.74701960e-06, -5.70099983e-05, 0., 0., 0.,
          0., 0., 0., 0., 0., 1.77307538e-05, -6.67036261e-07,
          7.63706157e-06, -6.02332557e-06, -5.19607875e-06,
          -5.14180283e-06, -3.42600373e-07, -8.37586981e-07,
          2.36445667e-05, 9.65750814e-07, 4.72845823e-05,
          -2.51447636e-05, -1.94675181e-06, 6.82686950e-05,
          1.06934340e-05, -1.15692737e-05, -1.38223095e-05,
          1.73158569e-05, 9.42754341e-05, -8.45422505e-07,
          1.28653419e-05, 6.57241253e-05, 4.94800988e-05, 5.77570863e-05,
          0., 0., 0., 0., 0., 0., 0., 0., 1.24562857e-05, 1.54541294e-06,
          7.89323258e-06, -5.25175801e-06, -3.40339795e-07,
          -1.69355076e-06, 6.07352331e-06, 1.11138945e-06,
          3.00812262e-05, -1.46450129e-05, 1.36193694e-06,
          4.52463901e-05, 9.64526498e-06, -7.70766201e-06,
          -1.72668097e-05, -7.64165907e-06, 3.94977324e-05,
          6.99089560e-06, -4.65370213e-05, -2.70427536e-05,
          4.52163076e-05, -2.05741835e-05, -3.81988139e-05,
          -7.37568989e-05, 0., -2.13846704e-07, -2.40949760e-07,
          -1.93196524e-06, -2.85297415e-06, 2.70905417e-07,
          -1.82925916e-07, 0., 1.90499832e-05, 1.57401996e-06,
          2.91588572e-06, -9.33289812e-07, 7.84351414e-06,
          1.83915915e-06, 5.48383650e-06, 7.88435344e-08, 1.03862703e-05,
          -2.58577779e-06, -4.71644444e-06, -4.59281364e-06,
          2.48352217e-06, 7.63391540e-07, 8.04360582e-07, 1.12968439e-06,
          -3.80346478e-06, -1.12745083e-05, -1.36051058e-05,
          -1.08237955e-05, -3.55144402e-06, -1.49527705e-06,
          -4.87603666e-06, -3.02030821e-06, -6.48269008e-07,
          -3.53665286e-07, 4.73392561e-07, -8.93678930e-07,
          -7.55692781e-06, -7.61343188e-07, 3.52255569e-07,
          5.00896959e-08, 4.36774972e-05, -3.55405246e-06,
          -4.92659501e-06, -6.81197480e-06, 2.34270647e-05,
          -2.74933382e-06, -4.00791896e-06, -3.59652154e-06,
          -3.91124668e-05, -1.53647613e-06, 2.55872128e-05,
          -3.28699207e-05, -8.20489149e-05, -6.32153342e-06,
          -8.73815225e-06, -2.51073998e-05, -1.48312058e-04,
          2.45382525e-05, 4.55189147e-05, -4.75813831e-05,
          -8.40530192e-05, -1.87574260e-05, -1.62546246e-06,
          -4.93323714e-05, -1.83451718e-07, -6.21474783e-08,
          1.82792519e-06, -1.17548041e-06, -7.93128856e-06,
          -8.24087465e-07, 9.33090064e-07, -5.62953062e-07,
          4.51153646e-05, 8.70299118e-07, 7.84059193e-06,
          -1.69187351e-05, 1.13671185e-05, 1.26897362e-06,
          -1.04053788e-06, -3.70461430e-06, -1.10515430e-05,
          8.31168472e-06, 1.12769201e-04, -3.27597036e-07,
          -2.04703974e-05, 1.22700090e-04, 4.41575467e-05,
          2.55635041e-05, -4.77047115e-06, 2.39256387e-05,
          3.55002412e-05, 4.21475961e-05, -4.06705476e-05,
          7.66412813e-06, 3.76125499e-05, 6.06534995e-05,
          -3.85093188e-07, -2.12333603e-07, 8.69028497e-07,
          -1.66003929e-06, -5.98763290e-06, -2.28887203e-07,
          2.02008323e-06, 3.27603146e-07, 3.22401720e-05, 3.57435511e-07,
          1.17446180e-05, 1.14460627e-05, -9.73849092e-06,
          -4.04719185e-06, 1.20499260e-06, 3.89419306e-08,
          2.04392745e-05, -1.82215226e-05, -1.49732505e-05,
          1.63485129e-05, 1.95391149e-05, -1.07482729e-05,
          -3.19882820e-05, -2.29378184e-05, -7.29724343e-06,
          3.46683373e-05, -4.20186552e-05, -4.77391732e-05,
          -1.73696517e-05, -1.99058668e-05, -1.79585295e-05,
          -6.81557722e-05, 3.94661720e-06, -4.10816739e-07,
          1.17517686e-06, -1.61689593e-06, -1.63041295e-06,
          -3.86058474e-07, 2.02607453e-06, 1.66762320e-07,
          2.19583981e-05, 1.53183396e-06, 1.37934569e-06, 7.57085616e-07,
          8.90662523e-06, 1.55636656e-06, 4.47444245e-06, 4.49182210e-07,
          -8.18734577e-07, -9.35295520e-06, -1.41848677e-05,
          -1.33914473e-05, -2.76099649e-06, -9.81159019e-07,
          -4.16496869e-06, -2.34459708e-06, -3.50550636e-06,
          -6.09873450e-06, -5.58308557e-06, -5.52112351e-06,
          -2.14171814e-06, -2.33153969e-06, -3.95733332e-06,
          -1.87589387e-06, 9.83641439e-06, -1.52458176e-06,
          1.01063044e-07, -3.48940966e-06, -1.07252993e-06,
          -1.21516803e-06, -4.66151761e-07, -1.10855660e-06,
          3.21727857e-05, -4.23833762e-06, -2.54889255e-06,
          -8.21621052e-06, 9.23073344e-07, -8.75659168e-07,
          -6.58624867e-06, -7.01189356e-06, -1.57389251e-04,
          1.03735438e-05, 3.07612790e-05, -2.99158019e-05,
          -1.21621299e-04, -2.29139132e-05, -8.27901295e-06,
          -5.44996146e-05, -6.55964250e-05, 2.91469187e-05,
          1.22552201e-05, -1.46500715e-05, -2.43079194e-05,
          -7.13874033e-06, -2.17216325e-06, -1.98797352e-05,
          9.27782185e-06, -3.42812257e-07, 4.44199213e-06,
          -2.61090713e-06, -2.76430137e-06, -2.98069108e-06,
          1.60994489e-06, -3.96219207e-07, 2.32101847e-05,
          1.13368969e-06, 3.31588635e-05, -2.70785386e-05,
          -2.82104111e-06, 4.70594969e-05, 6.80036555e-06,
          -1.22716519e-05, -1.94338663e-05, 1.31132256e-05,
          9.47785811e-05, -1.86736008e-06, 1.94887912e-06,
          6.54677933e-05, 4.86576428e-05, 5.68809955e-05,
          -3.10787618e-06, 1.48579802e-05, -1.35322216e-05,
          3.05410708e-06, -2.84699454e-05, 9.49876267e-08,
          3.44767250e-05, 5.81323948e-05, 6.78757442e-06, 7.21674553e-07,
          4.80866447e-06, -2.91363926e-06, -3.57846091e-07,
          -1.58413332e-06, 3.57902968e-06, 7.84121539e-07,
          3.86820357e-05, -8.77677758e-06, 1.37425673e-06,
          4.12448826e-05, 1.99875321e-05, -6.37612220e-06,
          -1.30182552e-05, -5.51618814e-06, 3.66000058e-05,
          6.47356455e-06, -4.40660915e-05, -2.78479692e-05,
          3.58094658e-05, -2.30745318e-05, -3.78328696e-05,
          -7.04273043e-05, -6.30662362e-06, 2.05730685e-05,
          7.38559356e-06, 1.05501776e-05, -7.29443946e-06,
          -5.82558596e-06, 4.41579914e-06, -5.71585406e-05,
          1.42502640e-05, 1.79320159e-06, 1.61788330e-06,
          -6.62008475e-08, 5.44385830e-06, 9.91807383e-07,
          3.84256919e-06, 1.98471170e-07, 1.08081549e-05,
          -2.35652215e-06, -2.68010035e-06, -3.89980278e-06,
          3.45264493e-06, 8.63549076e-07, 7.99993245e-07, 4.25258889e-07,
          -5.06946526e-06, -1.34664770e-05, -1.56647293e-05,
          -1.33688745e-05, -5.22883875e-06, -2.36463393e-06,
          -5.41310601e-06, -3.84866962e-06, -1.10796020e-06,
          -1.31604656e-06, -1.03412458e-06, -3.31331125e-06,
          -1.58349292e-06, -1.74258298e-06, -4.03449167e-06,
          -1.32322475e-06, 3.60716222e-05, -2.31448712e-06,
          -2.97110660e-06, -3.55093789e-06, 1.41989067e-05,
          -2.75488014e-06, -2.22517565e-06, -2.31995841e-06,
          -2.91260021e-05, 5.87946033e-07, 2.42810183e-05,
          -2.80451804e-05, -6.92326139e-05, -3.67962207e-06,
          -7.44091949e-06, -2.12307314e-05, -1.40047443e-04,
          2.86668164e-05, 4.38576644e-05, -4.99953385e-05,
          -9.36716606e-05, -2.20239199e-05, -2.97799102e-06,
          -5.55616753e-05, 3.53194514e-06, 1.58829807e-05,
          -1.97273948e-06, -5.12652696e-06, -3.89550451e-07,
          -7.68613916e-07, -5.73492252e-06, -3.97947952e-06,
          3.41057603e-05, 3.81334246e-07, 6.05776131e-06,
          -1.10726587e-05, 4.04040929e-06, 3.38583561e-08,
          4.39295036e-07, -2.04890262e-06, -9.11622351e-07,
          5.95724305e-06, 9.70574911e-05, -4.17740557e-06,
          -1.87428959e-05, 1.04467937e-04, 3.56128112e-05,
          2.28924364e-05, -5.34189155e-07, 2.41124144e-05,
          3.40820916e-05, 4.04703387e-05, -3.43694992e-05,
          1.03001476e-05, 3.42894564e-05, 4.60310112e-05,
          -5.98352983e-07, 4.02138653e-07, -1.64031244e-05,
          1.04007722e-06, 9.97046573e-06, 5.00265378e-06, 4.07802872e-06,
          4.76172772e-07, 2.14665270e-05, 9.31525165e-07, 8.92152730e-06,
          6.98282838e-06, -1.40861284e-05, -2.14185661e-06,
          2.65044832e-06, -3.96572730e-08, 2.00712857e-05,
          -1.66425016e-05, -2.21913524e-05, 2.71650606e-05,
          6.61829245e-06, -1.06923771e-05, -3.02905228e-05,
          -1.70308103e-05, -5.19850664e-06, 3.86786232e-05,
          -5.01462891e-05, -4.72936663e-05, -1.42848203e-05,
          -2.22542294e-05, -2.31585655e-05, -5.69801741e-05,
          -2.25877229e-05, 3.36151038e-06, 1.04581959e-05,
          3.73533840e-05, 7.71429495e-06, 5.20803860e-06, 2.82474575e-05,
          1.60171112e-05, 1.83676239e-05, 5.69888584e-07, 1.60444608e-06,
          2.63984745e-08, 7.76522847e-06, 1.75545028e-06, 3.83521046e-06,
          1.18373339e-06, -5.03907756e-07, -9.35543812e-06,
          -1.33634812e-05, -1.35662103e-05, -2.81238454e-06,
          -5.29625595e-07, -3.76208436e-06, -3.14874728e-06,
          -4.70791974e-06, -8.44960505e-06, -7.85891189e-06,
          -7.86481360e-06, -3.76893854e-06, -2.87614967e-06,
          -6.34488879e-06, -4.16591683e-06, 3.98366694e-07,
          -1.35088862e-06, -1.37970972e-06, -2.68028271e-06,
          -1.20461812e-06, -9.59962449e-07, -3.02816397e-06,
          -1.53593749e-06, 3.45945264e-05, -3.52548932e-06,
          -1.94506447e-06, -5.64367110e-06, 2.60832849e-06,
          -1.37912923e-06, -5.55277620e-06, -5.66987137e-06,
          -1.56550246e-04, 7.94681364e-06, 3.51233757e-05,
          -2.94674210e-05, -1.19957796e-04, -2.01470921e-05,
          -9.22157778e-06, -5.34855135e-05, -8.01054921e-05,
          3.92773145e-05, 1.79759172e-05, -2.09939353e-05,
          -3.37648089e-05, -8.76513695e-06, -3.81148857e-06,
          -2.58165655e-05, -1.36144683e-06, -1.95256916e-06,
          -3.54836203e-07, -4.80683730e-06, -1.24795588e-06,
          -2.55085979e-06, -9.14911834e-06, -4.66657912e-06,
          2.85970109e-05, 1.83352643e-06, 2.26429729e-05,
          -2.36600608e-05, -2.89682561e-07, 3.26544578e-05,
          4.54481460e-06, -1.15882831e-05, -3.07243208e-05,
          8.52969879e-06, 1.01112440e-04, 4.17291722e-06,
          -9.64658011e-06, 6.59644356e-05, 4.69657207e-05,
          6.40397848e-05, 1.02047134e-05, 1.56044680e-05,
          -1.65965557e-05, 6.04688069e-07, -3.43777901e-05,
          -2.98705913e-07, 3.05319627e-05, 6.35703618e-05,
          -2.41966154e-06, -4.83629810e-06, -6.03224134e-06,
          -1.91437994e-06, 1.38769735e-06, -2.71627937e-06,
          -5.92677361e-06, -4.92991876e-06, 3.35845070e-05,
          -5.74306932e-06, 2.63620734e-07, 3.05362992e-05,
          1.04919591e-05, -6.26488054e-06, -1.05424160e-05,
          -4.59688772e-06, 3.67691537e-05, 4.11862993e-06,
          -4.34298672e-05, -2.86300747e-05, 3.14458011e-05,
          -2.55263294e-05, -3.89203051e-05, -7.18911251e-05,
          -1.39605272e-05, 2.30852384e-05, 1.64811365e-06,
          5.46899810e-06, -8.94572986e-06, -7.66942139e-06,
          5.91069920e-07, -7.75631925e-05, 3.62823221e-06,
          2.03129321e-06, -1.24742633e-06, 2.54023016e-05,
          3.85485873e-06, 4.60545925e-06, 3.66945205e-05, 3.12626908e-05,
          9.46271484e-06, -1.82682606e-06, -1.88729905e-06,
          -3.09205757e-06, 2.46333320e-06, 1.40347800e-06,
          -2.71463534e-07, -3.75476787e-07, -5.60808530e-06,
          -1.56776732e-05, -1.81043597e-05, -1.49554771e-05,
          -5.04157879e-06, -3.02527883e-06, -6.37534731e-06,
          -4.81672168e-06, -1.99188275e-06, -2.92204550e-06,
          -1.12469672e-06, -3.02613603e-06, -2.06133927e-06,
          -1.65697304e-06, -5.47143554e-06, -2.90824687e-06,
          -5.88714613e-07, -1.61978676e-07, -9.22543506e-07,
          -4.40349538e-07, 6.60560389e-08, -5.29282943e-07,
          -1.08291476e-06, -9.20967523e-07, -2.11133647e-05,
          9.78383241e-07, 2.26563461e-05, -1.85598947e-05,
          -5.31315090e-05, -2.51490997e-06, -6.45439377e-06,
          -1.68833867e-05, -1.27430059e-04, 3.40763363e-05,
          4.13226117e-05, -4.93282823e-05, -9.55546639e-05,
          -2.28800309e-05, -4.26724409e-06, -5.98166807e-05,
          -2.20105539e-06, 2.15771088e-05, 9.05028301e-08,
          -4.55045893e-06, -9.59510658e-08, -1.97991676e-06,
          -9.29660746e-06, -5.56950545e-06, -1.06040420e-06,
          -1.57878688e-07, 1.84108126e-06, -8.26316409e-07,
          2.79390406e-07, -1.07103824e-06, -4.84517295e-06,
          -2.20560833e-06, 2.13833096e-06, 3.64830385e-06,
          7.72177300e-05, 6.85349642e-06, -2.19617923e-05,
          8.79164436e-05, 2.78077059e-05, 1.06722155e-05, 3.31480737e-06,
          2.50173835e-05, 3.35255245e-05, 3.58190628e-05,
          -2.83017162e-05, 1.12749722e-05, 3.07472037e-05,
          3.33945572e-05, -7.71895884e-06, 1.14661873e-06,
          -2.09661448e-05, 2.04228763e-06, 1.10533947e-05,
          7.38364815e-06, 6.43598332e-06, 5.13783789e-06,
          -1.27098326e-06, -1.57073544e-06, -2.54380052e-06,
          -1.66140876e-06, -9.94870334e-07, -2.90694265e-06,
          -3.84240820e-06, -1.53108851e-06, 2.28414647e-05,
          -1.31315173e-05, -2.28717636e-05, 3.60766680e-05,
          4.54954488e-06, -1.12316775e-05, -2.63856073e-05,
          -1.40637085e-05, -1.93730534e-06, 4.00335157e-05,
          -5.45127295e-05, -4.61203999e-05, -7.07324580e-06,
          -2.49205295e-05, -2.98830964e-05, -5.05079734e-05,
          -2.77257495e-05, 4.96020493e-06, -1.05183344e-05,
          2.96783401e-05, 7.93115669e-06, 6.40262760e-06, 3.26821282e-05,
          1.32143168e-05, 2.46023023e-06, 3.42151871e-08, 3.03584984e-05,
          8.78002447e-06, 8.61433250e-07, 2.31196236e-06, 2.50666835e-05,
          1.54572645e-05, -9.60245302e-07, -1.02196300e-05,
          -1.32065188e-05, -1.42560939e-05, -3.18002003e-06,
          -4.41914025e-08, -3.86215925e-06, -3.04593209e-06,
          -6.65901598e-06, -1.15480207e-05, -9.71989357e-06,
          -1.00400730e-05, -4.40243048e-06, -3.22852361e-06,
          -7.23593348e-06, -5.46957881e-06, -1.24370308e-06,
          -1.26200223e-06, -9.94556331e-07, -2.91578067e-06,
          -1.14532793e-06, -1.64589687e-06, -5.81666745e-06,
          -2.27310466e-06, 0., 2.25474057e-08, 1.91954399e-07,
          1.65202287e-08, 1.65202287e-08, 1.35700120e-07,
          -6.82603968e-07, -5.71249643e-07, -1.49739935e-04,
          9.67907636e-06, 4.46891972e-05, -3.45019107e-05,
          -1.15025861e-04, -1.67239778e-05, -9.23584412e-06,
          -5.15178581e-05, -7.12490510e-05, 4.92589243e-05,
          2.88560623e-05, -2.28177196e-05, -4.41683260e-05,
          -1.09040921e-05, -4.41268730e-06, -3.11161712e-05,
          -2.24292739e-06, -2.87038483e-06, 1.43261957e-06,
          -5.63265303e-06, 8.93529304e-08, -3.73918829e-06,
          -1.33871954e-05, -8.00957059e-06, -9.22002528e-07,
          3.19162723e-07, 5.43851002e-07, -1.25398969e-07,
          -5.08432663e-07, 8.01554521e-08, -4.14670012e-07,
          -6.61838953e-07, -3.73635085e-05, 6.98027679e-06,
          1.02523132e-04, 2.00224549e-05, -2.02762112e-05,
          7.23605845e-05, 5.03504089e-05, 7.93379077e-05, 1.71863921e-05,
          2.10877315e-05, -2.45782994e-05, 1.65474580e-06,
          -3.79923840e-05, -5.85021382e-07, 2.64503142e-05,
          5.68291543e-05, -3.51690596e-06, -7.05991715e-06,
          -9.10533890e-06, -1.70979638e-06, 4.62971684e-06,
          -1.74117406e-06, -9.96991184e-06, -9.42965926e-06,
          -1.00257807e-06, 4.02825293e-07, -6.08054847e-07,
          -5.05735898e-07, 7.01741101e-08, -7.17700630e-07,
          -8.96785366e-07, -2.28850425e-07, 4.53887842e-05,
          6.73484828e-06, -4.13298367e-05, -2.37074946e-05,
          3.37372439e-05, -2.51352449e-05, -3.93124064e-05,
          -6.62674138e-05, -1.68353417e-05, 2.82850669e-05,
          -5.54296184e-06, 1.14002307e-06, -1.12342323e-05,
          -1.01530832e-05, -4.03620379e-06, -7.79877810e-05,
          4.55260260e-06, 2.56851058e-06, -8.55007693e-06,
          3.28269016e-05, 5.88764669e-06, 7.65295772e-06, 2.38364282e-05,
          4.37253329e-05, 4.23173077e-07, -8.12104247e-07,
          6.81096981e-06, 8.71034274e-07, 1.65614065e-08, 3.17585972e-07,
          5.55343422e-06, 2.11262773e-06, -8.10349411e-06,
          -1.85472909e-05, -2.09570717e-05, -2.05623055e-05,
          -6.21362778e-06, -2.77393065e-06, -7.44058116e-06,
          -6.52439758e-06, -2.14334318e-06, -4.02043588e-06,
          -1.00310331e-06, -4.15992326e-06, -2.53104395e-06,
          -2.52660902e-06, -8.77136245e-06, -4.96824123e-06,
          -4.90175751e-07, -1.79566564e-06, 1.91199078e-07,
          -1.05692743e-06, -4.67784304e-07, -2.46829700e-07,
          -2.95967220e-06, -1.51124118e-06, 0., 0., 0., 0., 0., 0., 0.,
          0., -1.11026719e-04, 4.26479746e-05, 4.15220748e-05,
          -3.55580960e-05, -9.93334252e-05, -2.65554663e-05,
          -5.46674255e-06, -7.23050471e-05, -6.47033266e-06,
          3.79305311e-05, 6.24402719e-06, -5.55041379e-06,
          -2.15380578e-06, -2.31926651e-06, -1.25739871e-05,
          -9.62924059e-06, -9.08843049e-07, -6.00368253e-07,
          3.07008258e-06, -1.35102187e-06, 4.43168240e-08,
          -1.56562555e-06, -8.88983868e-06, -5.24319421e-06, 0., 0., 0.,
          0., 0., 0., 0., 0., 1.00216539e-05, 2.83276477e-05,
          4.08922315e-05, 3.64124062e-05, -1.41380988e-05,
          1.15056382e-05, 2.66626357e-05, 2.12662526e-05,
          -1.14707300e-05, 3.21133507e-06, -2.81065422e-05,
          5.86358010e-06, 9.42468978e-06, 1.15733201e-05, 1.24521848e-05,
          1.81544219e-05, -2.96130861e-06, -4.12625013e-06,
          -4.62119669e-06, -3.11938334e-06, -2.28615863e-06,
          -4.39807991e-06, -6.94634309e-06, -4.01145462e-06, 0., 0., 0.,
          0., 0., 0., 0., 0., 6.69493420e-06, 4.69201368e-05,
          -5.84008667e-05, -4.25358667e-05, 7.74843329e-07,
          -3.02975259e-05, -3.94847193e-05, -3.70834059e-05,
          -3.28052229e-05, 7.35792037e-06, -7.19255240e-06,
          1.61174867e-05, 6.90935667e-06, 5.41489044e-06, 2.45367573e-05,
          -4.82326232e-06, 2.82071460e-06, -1.38679638e-06,
          2.81206940e-06, 1.27409257e-05, 1.09188011e-06, 3.81461564e-06,
          3.94426970e-05, 2.47220632e-05, 0., 0., 0., 0., 0., 0., 0., 0.,
          0., 0., 0., 0., 0., 0., 0., 0., 1.03478815e-05,
          -1.03016089e-06, -3.20169526e-08, -4.84722887e-06,
          -4.65966104e-06, -1.43340139e-06, 2.60085312e-06,
          -3.46041674e-07, 3.44935215e-05, -2.26158318e-06,
          -5.92869947e-06, -7.90568902e-06, 1.09875218e-05,
          1.78996572e-07, 3.13882015e-06, -1.74479044e-06,
          -3.65350716e-05, -2.19400881e-05, -2.46544059e-05,
          -5.68714167e-05, -3.74865958e-05, -1.16629262e-05,
          -1.33587155e-05, -1.97340541e-05, 0., 0., 0., 0., 0., 0., 0.,
          0., 1.41493374e-05, -2.73477121e-06, -9.41171209e-07,
          -5.62444120e-06, -5.95563870e-06, -4.23580104e-06,
          -3.19920741e-06, -1.61138644e-06, 1.23391583e-05,
          -5.15923739e-06, 1.54185618e-05, -1.08281247e-05,
          -2.44279499e-06, 1.99401347e-05, -7.07118215e-06,
          -8.02553132e-06, -8.26417527e-05, 4.37610288e-05,
          1.07077583e-04, -1.00319521e-05, -2.91547003e-05,
          2.13775256e-05, 3.08176459e-05, 8.56623956e-06, 0., 0., 0., 0.,
          0., 0., 0., 0., 1.39873864e-05, 3.53476963e-07, 1.00881671e-05,
          -5.59162117e-06, -8.74295984e-06, -5.09758411e-06,
          4.12883946e-06, 3.42399005e-07, 2.29708330e-05,
          -6.03211083e-06, 3.51055824e-05, -2.33888331e-05,
          -6.21691515e-06, 4.75593988e-05, 8.10132769e-06,
          -1.87148798e-05, 1.07445385e-06, -1.37622637e-05,
          2.09588834e-05, -7.19540867e-06, -3.93210030e-06,
          4.31410772e-05, 1.29637574e-05, 1.11544887e-05, 0., 0., 0., 0.,
          0., 0., 0., 0., 9.13062104e-06, 2.59691546e-06, 1.61696044e-05,
          9.68019776e-06, 7.56345207e-06, 1.03336390e-06, 6.78299466e-06,
          2.30853288e-06, 4.00402932e-05, -3.33395406e-07,
          -1.46941811e-05, 6.48687201e-05, 1.24526905e-05,
          -4.21477889e-05, -3.24329376e-05, 1.52090615e-06,
          -3.64845641e-06, 9.18362457e-06, -5.18689776e-05,
          -2.16673689e-05, 1.77286404e-06, -5.84091722e-05,
          -4.40592776e-05, -9.01796084e-05, -1.05663467e-07,
          -4.47528350e-07, 6.65934067e-07, -8.10905703e-07,
          -5.52829670e-06, -1.12192890e-06, 1.21431469e-06,
          -3.39345092e-07, 2.66886127e-05, 1.49710246e-07,
          -5.84524628e-07, -3.66429322e-06, 9.11156621e-06,
          -8.64199535e-07, 2.41109092e-06, -1.23021994e-06,
          4.35473021e-06, -8.15996555e-06, -1.49427005e-05,
          -3.03091037e-05, -1.54101581e-05, -2.84632210e-06,
          -3.59114460e-06, -8.59919237e-06, -4.99471244e-05,
          -2.25682234e-05, -1.54129248e-05, -3.66547320e-05,
          -2.60853958e-05, -1.20970799e-05, -1.28201682e-05,
          -1.94118529e-05, -7.37882374e-07, -1.23298364e-07,
          7.95955827e-07, -9.27451310e-07, -7.04136346e-06,
          -6.90026809e-07, 9.26228125e-08, -9.72475846e-07,
          4.02876394e-05, -2.63460720e-06, -4.34899584e-06,
          -9.89775072e-06, 1.71323973e-05, -4.53673465e-06,
          -7.05362618e-06, -3.27585258e-06, -4.61226300e-05,
          8.27768690e-06, 8.25181269e-05, -8.05480067e-06,
          -3.89948073e-05, 3.87442415e-05, 1.26761661e-05,
          -1.62930723e-06, -4.53390130e-05, 6.14065284e-05,
          7.81026829e-05, 1.50685837e-05, -5.09114943e-05,
          2.63285892e-06, 3.24685607e-05, 1.80469233e-05,
          -5.87482454e-08, -1.39468042e-07, 2.49175605e-06,
          -9.69286816e-07, -7.81104791e-06, -9.22914921e-07,
          1.40119653e-06, -1.64424407e-07, 3.38463979e-05,
          4.68391761e-08, 1.15917155e-05, -1.17133177e-05,
          -2.16186745e-05, -3.25831508e-07, 2.92412551e-06,
          -3.29262366e-06, 1.25968600e-05, -1.18746520e-05,
          3.58886755e-05, -2.07949561e-05, -6.58081080e-06,
          7.79621842e-05, 1.35895953e-05, -3.05428534e-06,
          -1.08569593e-05, -7.17112607e-06, -2.54567531e-05,
          -2.07566027e-05, -5.65268492e-05, -1.52237581e-05,
          9.44891417e-06, 1.74172510e-05, -8.03174032e-07,
          -8.03940807e-08, 1.42674628e-06, 9.00560963e-07,
          -5.11185362e-06, -4.59528110e-07, 1.27145211e-06,
          4.28750980e-07, 3.20535364e-05, 4.90248158e-06, 2.00681461e-05,
          4.09040258e-05, 1.50780324e-05, -5.53438576e-06,
          6.91935099e-07, 1.80802158e-06, 6.80508720e-06,
          -1.11386762e-05, -2.96039925e-05, 2.72459201e-05,
          2.06112818e-05, -6.59113211e-05, -5.02297553e-05,
          -2.27407036e-05, 2.02797355e-06, 4.35807997e-05,
          -2.82212714e-05, -2.46358777e-05, -9.29861699e-07,
          -1.81312553e-05, -1.25895076e-05, -1.05622043e-04,
          5.61951811e-06, -7.79784770e-08, 3.69545944e-07,
          -2.54084262e-06, -2.87646321e-06, 6.94684346e-08,
          1.51885513e-06, 2.87629476e-08, 2.95052032e-05,
          -1.37279551e-06, -5.17579201e-06, -6.13634938e-06,
          9.10366634e-06, -4.30678085e-07, 2.37189374e-06,
          -2.11347856e-06, -3.43840329e-05, -1.87956830e-05,
          -2.07765406e-05, -5.14737840e-05, -3.57308709e-05,
          -1.06781708e-05, -1.18278658e-05, -1.99342358e-05,
          -2.74309896e-05, -8.31274247e-06, -6.28711405e-06,
          -1.17492082e-05, -9.56956501e-06, -7.37325627e-06,
          -9.58639066e-06, -1.03823531e-05, 8.22226048e-06,
          -8.70486133e-07, 1.75952579e-07, -3.15750549e-06,
          -3.09508937e-06, -2.32263028e-06, -1.62639105e-06,
          -1.05263052e-06, 2.16844146e-05, -2.80338350e-06,
          1.08795048e-05, -8.80348307e-06, -1.31994170e-06,
          1.37263551e-05, -4.81157485e-06, -7.57934777e-06,
          -8.86311827e-05, 3.70603266e-05, 1.03073682e-04,
          -1.38431333e-05, -3.41525047e-05, 2.17349225e-05,
          2.83083100e-05, 8.95481844e-06, -1.78599657e-05,
          4.79623341e-05, 7.45596662e-06, -1.83111513e-06,
          -2.34488980e-05, 3.21724656e-06, 2.19023495e-05,
          1.02119884e-05, 6.86654084e-06, 5.04630236e-07, 5.91311073e-06,
          -2.61274545e-06, -4.48720266e-06, -2.52235213e-06,
          3.68582710e-06, -2.43910364e-07, 2.78364732e-05,
          -5.04327681e-06, 2.26825123e-05, -1.85452409e-05,
          2.53920575e-07, 3.25031288e-05, 4.20833385e-06,
          -1.57092963e-05, 3.18512707e-06, -1.44162432e-05,
          1.76241392e-05, -4.93434663e-06, -1.45840950e-05,
          3.56158671e-05, 7.83307587e-06, 6.09823019e-06,
          -3.87441141e-05, -8.79006075e-06, -5.32643571e-06,
          -6.94580422e-06, -3.47182031e-05, -1.12695507e-05,
          1.70079438e-05, 1.11894578e-05, 4.92568324e-06, 2.24742553e-06,
          9.17074431e-06, 5.50697087e-06, 3.93011169e-06, 7.50516108e-07,
          3.33615844e-06, 1.29876992e-06, 4.54492656e-05, 2.12403188e-06,
          -1.04195442e-05, 6.95122144e-05, 1.87621190e-05,
          -2.92867571e-05, -2.25818731e-05, 3.83655021e-07,
          -3.63531603e-06, 8.62856268e-06, -4.35499751e-05,
          -1.93508731e-05, -9.59891281e-07, -5.58376269e-05,
          -3.98647353e-05, -7.97224347e-05, 3.29815630e-05,
          2.81559187e-05, -1.00803445e-05, -8.81116284e-06,
          7.80265782e-06, 1.32398804e-06, 6.82957307e-06,
          -4.45337646e-05, 2.03097643e-05, -1.87262074e-07,
          1.80607898e-07, -2.38100461e-06, 7.08995003e-06,
          -2.43295261e-07, 2.61326500e-06, -7.50263439e-07,
          5.48475100e-06, -5.36005155e-06, -1.09762186e-05,
          -2.45944320e-05, -1.18824446e-05, -2.29322018e-06,
          -3.98248812e-06, -6.52779181e-06, -5.53574828e-05,
          -2.38671710e-05, -1.49248444e-05, -4.03029371e-05,
          -3.04414189e-05, -1.36873505e-05, -1.56762326e-05,
          -2.33567425e-05, -5.33695766e-06, -4.74022784e-07,
          -1.02629963e-06, -4.19290154e-06, -2.05488573e-06,
          -2.34068534e-06, -6.73406748e-06, -3.19664287e-06,
          2.85165734e-05, -1.82227507e-06, -3.04852983e-06,
          -6.29041415e-06, 1.05640574e-05, -2.52311042e-06,
          -3.14490762e-06, -2.32402522e-06, -3.78771983e-05,
          7.17550074e-06, 6.95559720e-05, 1.14286229e-06,
          -4.38665884e-05, 3.43527936e-05, 9.84662984e-06,
          -2.31174909e-06, -2.87167750e-05, 6.72907481e-05,
          8.61099761e-05, 2.06506393e-05, -4.99303897e-05,
          4.38869165e-06, 2.96819908e-05, 1.84489672e-05, 1.94598524e-05,
          1.57160612e-05, -9.53781000e-06, -2.13292424e-06,
          6.34284424e-06, 3.35042864e-06, -4.06400247e-08,
          2.80782297e-06, 2.31935501e-05, 5.01690920e-07, 8.41728070e-06,
          -7.97736811e-06, -1.76877220e-05, -1.22655786e-06,
          3.34296055e-06, -2.08448569e-06, 1.12288544e-05,
          -1.26105078e-05, 2.89110540e-05, -7.44687213e-06,
          -1.99965871e-05, 6.76704149e-05, 6.03010585e-06,
          -1.28257852e-05, -1.17275877e-05, -7.53843733e-06,
          -3.33207972e-05, -1.94083041e-05, -5.19610221e-05,
          -1.65500369e-05, 3.13906844e-06, 1.38129590e-05,
          -4.09879140e-05, -6.77955995e-06, 1.80455045e-05,
          1.47905957e-05, 1.61287778e-06, 3.46690058e-06, 1.49749631e-05,
          -5.77492938e-06, 2.10040125e-05, 3.67460302e-06,
          1.26511468e-05, 2.74332197e-05, 1.15035918e-05,
          -2.54104589e-06, 1.28974898e-06, 1.76139690e-06,
          1.34568018e-05, -8.35419905e-06, -2.84302023e-05,
          4.12241134e-05, 1.87013138e-05, -5.62754649e-05,
          -4.14279275e-05, -1.57843988e-05, -3.94115750e-06,
          4.83299664e-05, -3.08019844e-05, -2.67464311e-05,
          -2.17739421e-06, -2.18148780e-05, -1.56517599e-05,
          -1.07793967e-04, 8.47087449e-06, 9.62176955e-07,
          -1.32302557e-05, -6.29338774e-06, 7.27487304e-06,
          7.29835335e-07, 5.29796625e-06, 7.10654240e-06, 2.64168448e-05,
          -5.84843917e-07, -2.32748403e-06, -3.87323144e-06,
          7.07305890e-06, -2.76027464e-07, 1.37621998e-06,
          -1.38816188e-06, -3.46578527e-05, -1.68994666e-05,
          -1.78800801e-05, -4.81617062e-05, -3.43765460e-05,
          -1.06507077e-05, -1.19996730e-05, -2.03046511e-05,
          -3.59135702e-05, -9.29860926e-06, -6.00513476e-06,
          -1.65383553e-05, -1.28721149e-05, -9.13789427e-06,
          -1.20138402e-05, -1.38581745e-05, -1.46470575e-06,
          -1.42729391e-06, -8.59920135e-07, -3.30495754e-06,
          -1.24676637e-06, -1.81674943e-06, -5.42714315e-06,
          -2.94474739e-06, 2.71960853e-05, -1.93238134e-06,
          6.83605231e-06, -7.69477174e-06, 3.63856066e-06,
          9.48860270e-06, -3.91782442e-06, -6.14215060e-06,
          -1.03374776e-04, 3.19757637e-05, 1.03524464e-04,
          -1.47733181e-05, -4.46932645e-05, 2.27800901e-05,
          2.95979407e-05, 7.87461249e-06, -1.77992242e-05,
          6.10811767e-05, 1.13922742e-05, -2.83287841e-06,
          -2.85945262e-05, 4.18054060e-06, 2.89857926e-05,
          1.56199494e-05, -1.73929868e-06, -2.89159880e-06,
          -9.58902206e-07, -2.49216237e-06, 1.19250433e-06,
          -2.09823293e-06, -7.35072217e-06, -3.54391500e-06,
          2.77278232e-05, -3.49688094e-06, 1.41114933e-05,
          -1.42394892e-05, -5.71980809e-06, 2.22268845e-05,
          2.34196159e-06, -1.20792411e-05, 1.39883377e-05,
          -1.46227403e-05, 1.43647476e-05, 2.75917955e-06,
          -1.89578714e-05, 3.27380985e-05, 1.77004654e-06,
          1.26327241e-05, -3.06711627e-05, -1.02445783e-05,
          -8.72525743e-06, -2.15732380e-05, -4.34339127e-05,
          -1.45895647e-05, 1.83398133e-05, 1.15972016e-05,
          -5.03994443e-07, -1.37446398e-06, 2.71589961e-05,
          8.60643831e-06, 3.51238356e-07, 3.25647619e-07, 1.64083540e-05,
          5.03858701e-06, 3.82016588e-05, 1.95079019e-06,
          -8.21436970e-06, 5.99077975e-05, 2.24366868e-05,
          -2.07535104e-05, -1.70184576e-05, -4.14179553e-08,
          -5.71794658e-07, 1.10505489e-05, -3.98762822e-05,
          -1.48825202e-05, -3.42196086e-06, -5.51848607e-05,
          -3.61647581e-05, -7.18053561e-05, 3.11655531e-05,
          3.46402594e-05, -1.68311672e-05, -1.88690647e-05,
          6.50763241e-06, -9.85742645e-07, 2.99860608e-06,
          -6.09049603e-05, 3.97213216e-06, -4.43798262e-06,
          -9.48245361e-06, 1.87992941e-06, 2.87965736e-06,
          -2.31368358e-06, -2.01785792e-06, 1.35228447e-05,
          6.20432547e-06, -3.52123743e-06, -7.54986513e-06,
          -1.86679645e-05, -9.27371093e-06, -1.07505980e-06,
          -2.02016031e-06, -5.77553055e-06, -5.96365026e-05,
          -2.21850642e-05, -1.40726806e-05, -4.43467106e-05,
          -3.44470391e-05, -1.52351422e-05, -1.59138290e-05,
          -2.66071802e-05, -9.68439690e-06, 2.07542371e-07,
          -1.51385848e-06, -5.96640075e-06, -3.40096358e-06,
          -4.41976863e-06, -7.80890969e-06, -4.86525732e-06,
          -6.53489167e-07, -1.04208857e-06, -6.15814258e-07,
          -1.31473780e-06, -5.35469553e-07, -6.37948938e-09,
          -2.07846688e-06, -1.10161989e-06, -3.66597160e-05,
          5.54461485e-06, 5.95683596e-05, 1.07860869e-05,
          -3.84504492e-05, 3.18842176e-05, 8.93246761e-06,
          -4.14839451e-06, -1.93859978e-05, 7.66804733e-05,
          9.58845776e-05, 2.65857598e-05, -4.60753363e-05,
          5.52155416e-06, 2.97293736e-05, 2.54467122e-05, 2.07493613e-05,
          2.38342182e-05, -9.83262180e-06, -1.61403375e-06,
          8.29010605e-06, 5.33118146e-06, 2.46888771e-06, 4.09806307e-06,
          -1.92819343e-07, -4.71554728e-07, -7.84099115e-08,
          -1.11387885e-06, -8.13659824e-07, -2.01037415e-06,
          -4.17744423e-06, -1.04440301e-06, 7.62590344e-06,
          -1.16596348e-05, 2.16689641e-05, -3.16255887e-06,
          -2.49336972e-05, 5.61765919e-05, 3.53137602e-06,
          -1.67779344e-05, -8.88938848e-06, -6.48043215e-06,
          -3.20162908e-05, -1.75418536e-05, -4.62026619e-05,
          -1.75985497e-05, -2.46940135e-06, 1.32831519e-05,
          -5.50783516e-05, -9.02123156e-06, 2.51579550e-05,
          1.85310855e-05, -2.17120572e-07, 4.36299024e-06,
          2.14142383e-05, -5.11731059e-06, -5.49156766e-07,
          9.00122927e-07, 1.77981510e-05, 2.35229027e-06,
          -1.10158692e-06, 1.05493100e-07, 1.18843664e-05,
          4.46877630e-06, 2.03561212e-05, -5.14620160e-06,
          -2.66881852e-05, 5.44799186e-05, 1.53629298e-05,
          -4.63060642e-05, -3.22630585e-05, -9.55841824e-06,
          -4.08165079e-06, 5.55611987e-05, -3.09733769e-05,
          -2.55280884e-05, -1.45968738e-06, -2.47245534e-05,
          -1.71388238e-05, -1.02022597e-04, 1.74603956e-05,
          5.15443207e-06, -1.08124077e-05, -1.26902505e-05,
          8.70076474e-06, 6.28817190e-07, -4.72054990e-06,
          -8.86261023e-06, 3.34712877e-06, -3.90649575e-06,
          -1.04214823e-05, -9.21136348e-07, 1.22440429e-06,
          -6.70839768e-07, 3.70062298e-06, 4.52993436e-06,
          -3.23743261e-05, -1.43343868e-05, -1.33835629e-05,
          -4.32872184e-05, -3.23192362e-05, -1.02250033e-05,
          -1.08016175e-05, -2.05985543e-05, -4.69715560e-05,
          -8.31674970e-06, -4.33761352e-06, -2.12169325e-05,
          -1.76429949e-05, -1.07798833e-05, -1.37219458e-05,
          -1.83196826e-05, -1.11129634e-06, -1.53238022e-06,
          -3.75271014e-07, -4.49088429e-06, -1.82209897e-06,
          -2.85452688e-06, -7.75641183e-06, -3.93583377e-06,
          -4.65972732e-07, -4.65972732e-07, -1.37144349e-08,
          -5.07140101e-07, -2.63086815e-08, -3.26646301e-07,
          -2.62710529e-07, -7.29481144e-07, -1.13746508e-04,
          3.18558159e-05, 1.06986045e-04, 1.73042224e-07,
          -5.34727551e-05, 2.80008535e-05, 3.41813065e-05,
          1.24429434e-05, -4.02904016e-06, 8.32397927e-05,
          1.75377681e-05, -1.77130730e-07, -3.24183675e-05,
          6.62771072e-06, 2.98985760e-05, 2.84150628e-05,
          -7.42884367e-07, -2.77819481e-06, -1.10543532e-07,
          -1.54702593e-06, 4.08526648e-06, -1.97293048e-06,
          -1.12683347e-05, -6.57801638e-06, -4.23868300e-07,
          -3.03588905e-07, -5.53345956e-07, -4.82778887e-07,
          7.01741101e-08, -6.95153233e-07, 7.55030314e-08,
          -7.37743619e-07, 3.09284515e-05, -1.28081347e-05,
          1.37533680e-05, 8.21341382e-06, -1.34001120e-05,
          3.44088585e-05, -1.41444764e-06, 1.78033515e-05,
          -1.61412572e-05, -1.19614069e-05, -2.07862795e-05,
          -2.43408867e-05, -4.57955939e-05, -1.78511709e-05,
          1.64174726e-05, 1.61200696e-05, -2.58409932e-06,
          -2.14306669e-06, 3.81736609e-05, 1.33744461e-05,
          1.61060791e-06, 1.76930814e-06, 2.43495415e-05, 6.67052882e-06,
          2.25474057e-08, 5.06586844e-08, 3.64651828e-06, 1.89765046e-07,
          -1.06120513e-06, -4.22920408e-07, 1.68412600e-06,
          9.78408252e-07, 6.77932576e-06, 1.74481484e-05,
          -3.53031428e-05, -6.46413355e-06, 3.98154680e-06,
          -5.39994980e-05, -3.04900932e-05, -6.54179967e-05,
          2.82230867e-05, 5.02088369e-05, -2.14683987e-05,
          -2.17632860e-05, 5.75537479e-06, -1.82468580e-06,
          1.91677327e-06, -7.73657957e-05, 6.00160365e-06,
          -5.89125011e-06, -1.30806793e-05, -6.62109278e-06,
          3.48679782e-06, -2.50845164e-06, -3.05864819e-06,
          -2.14643001e-06, 9.82691176e-07, -2.05581864e-06,
          1.63178584e-07, -4.12540913e-07, -5.59915406e-07,
          -6.05237119e-07, 2.04433604e-06, -7.59873046e-07,
          -7.14592898e-05, -1.98298294e-05, -8.27183794e-06,
          -5.19198111e-05, -4.19959688e-05, -1.82168533e-05,
          -2.04708740e-05, -3.51369781e-05, -1.62471115e-05,
          1.09322912e-06, 2.94420687e-07, -8.13007773e-06,
          -6.21395566e-06, -6.07564198e-06, -1.32458727e-05,
          -8.84553720e-06, -1.06419714e-06, -6.77033938e-07,
          2.16570157e-07, -2.16969897e-06, -6.23455890e-07,
          -7.41249721e-07, -3.57953968e-06, -3.00058355e-06, 0., 0., 0.,
          0., 0., 0., 0., 0., -1.50626529e-05, 9.26943321e-05,
          1.07143926e-04, 2.83019162e-05, -3.98581433e-05,
          7.19865238e-06, 2.77098461e-05, 3.47736168e-05, 3.09577372e-05,
          4.14956412e-05, -1.04301198e-05, 3.43440014e-08,
          9.18926526e-06, 9.54639836e-06, 5.94248149e-06, 8.98529470e-06,
          -9.15296937e-07, -1.31660931e-06, 8.09926860e-07,
          -8.45491172e-07, -3.27550218e-08, -2.99817475e-06,
          -8.29988221e-06, -2.99591215e-06, 0., 0., 0., 0., 0., 0., 0.,
          0., -1.33300291e-05, -9.40326754e-06, -3.20283507e-05,
          -1.80292554e-05, -3.44072723e-05, -2.19027606e-05,
          -1.60655563e-05, 6.63436685e-06, -6.94709524e-05,
          -1.17501695e-05, 2.88114352e-05, 2.19883295e-05,
          -6.55943586e-06, 4.42994815e-06, 2.97593979e-05,
          -3.68980318e-06, -6.81616314e-07, 9.53594508e-07,
          2.71942008e-05, 3.64431412e-06, -2.65481208e-06,
          -6.97202267e-07, 1.94477889e-05, 6.58891668e-06, 0., 0., 0.,
          0., 0., 0., 0., 0., -9.83966675e-06, 7.08576335e-05,
          -3.06810543e-05, -2.89372765e-05, -2.24229120e-06,
          -3.13636046e-05, -2.18564655e-05, -9.85451989e-05,
          2.78678890e-05, 1.03539105e-05, -1.62363322e-05,
          -2.04470198e-05, 6.58724139e-06, -2.42986539e-06,
          -6.56826387e-06, -2.95004247e-05, 4.34839831e-06,
          -7.84647182e-06, -1.32577679e-05, -5.79628704e-06,
          1.17852028e-06, -3.53675455e-06, -6.97770943e-08,
          2.86190061e-06, 0., 0., 0., 0., 0., 0., 0., 0., 0., 0., 0., 0.,
          0., 0., 0., 0., 9.82448182e-06, -2.04147636e-06,
          -9.16813860e-07, -5.15599550e-06, -4.88368687e-06,
          -2.93581252e-06, 1.03985215e-07, -1.52530811e-06,
          3.04210189e-05, -5.05695562e-06, -5.00442002e-06,
          -8.66509527e-06, -2.30593491e-06, -3.17425111e-06,
          -6.70317695e-06, -6.46339231e-06, -1.14747148e-04,
          2.74231866e-06, 2.58778600e-05, -5.87888171e-05,
          -9.88418178e-05, -1.84755572e-05, -5.84494410e-06,
          -4.05356986e-05, 0., 0., 0., 0., 0., 0., 0., 0.,
          1.27198564e-05, 5.07407606e-07, 5.00042142e-06,
          -4.94079677e-06, -8.14763916e-06, -4.83961639e-06,
          1.71093347e-07, -7.11453993e-07, 2.01874900e-05,
          1.46814477e-06, 3.61859602e-05, -3.19591782e-05,
          -1.14380884e-06, 5.00528768e-05, 6.55678832e-06,
          -1.40447246e-05, -2.77200361e-05, 1.15979701e-05,
          1.02659360e-04, 1.30772087e-05, 3.19627088e-06, 5.65307346e-05,
          4.51566084e-05, 5.91811113e-05, 0., 0., 0., 0., 0., 0., 0., 0.,
          1.20926243e-05, 6.28687872e-07, 6.49172398e-06,
          -6.40490271e-06, -5.24950065e-06, -3.21302014e-06,
          5.20967706e-06, 2.69020802e-07, 2.58969503e-05,
          -1.60905311e-05, -5.25616812e-08, 4.00040881e-05,
          5.78436584e-06, -6.96059396e-06, -1.67921735e-05,
          -9.17570742e-06, 3.12134653e-05, 7.21156709e-07,
          -4.52417735e-05, -2.26844750e-05, 3.42942985e-05,
          -1.95288303e-05, -3.75574527e-05, -7.16762661e-05, 0., 0., 0.,
          0., 0., 0., 0., 0., 6.82914470e-06, 5.22823348e-06,
          3.10093747e-05, 2.80302847e-05, 1.32472842e-05, 2.31715717e-06,
          9.73344049e-06, 3.66568179e-06, 4.16989205e-05, 9.19048489e-06,
          1.52922837e-06, 6.08960399e-05, 1.56030219e-05,
          -2.80618569e-05, -1.91945419e-05, 1.49762218e-06,
          -3.82281651e-05, -5.59074533e-06, -2.51285855e-05,
          -1.17135760e-05, -4.18913769e-05, -5.14047751e-05,
          -2.57324664e-05, -5.16955952e-05, -9.27301329e-08,
          -1.06226025e-06, 4.42137463e-07, -7.80095831e-07,
          -6.17509932e-06, -1.12192890e-06, 1.20138134e-06,
          -6.22143375e-07, 2.96720082e-05, -2.94555275e-06,
          -3.86906549e-06, -4.41946486e-06, 1.15664143e-05,
          -2.57172451e-06, -2.94861820e-06, -2.79185360e-06,
          -2.69443099e-05, -1.96288875e-06, 1.08493168e-05,
          -2.70729433e-05, -5.68325595e-05, -6.95572726e-06,
          -6.21291383e-06, -1.91247545e-05, -1.18600045e-04,
          1.16664423e-05, 2.41846228e-05, -3.67045177e-05,
          -6.01077991e-05, -1.44281448e-05, -2.55445116e-06,
          -3.47397254e-05, -4.78502670e-07, -4.65031775e-07,
          1.51385484e-06, -8.63988760e-07, -7.36916309e-06,
          -8.17251419e-07, 3.44339270e-07, -1.00328566e-06,
          3.71532187e-05, -8.75377779e-08, 4.83464601e-06,
          -1.24981398e-05, 6.30692421e-06, -9.99738631e-07,
          -1.89301761e-06, -2.71914450e-06, -1.00246325e-05,
          5.32316926e-06, 9.56580188e-05, -1.42974031e-05,
          -2.27087712e-05, 9.40039099e-05, 3.03508241e-05,
          1.77094407e-05, -1.67062335e-05, 1.51961740e-05,
          4.21410987e-05, 3.48027206e-05, -4.46661215e-05,
          4.38717234e-06, 3.43351312e-05, 7.08399602e-05,
          -4.20573940e-07, -2.12333603e-07, 1.45072863e-06,
          -1.16732792e-06, -7.22401683e-06, -7.70788176e-07,
          1.51153552e-06, 5.69752331e-07, 3.13351411e-05,
          -7.34163336e-07, 8.80853440e-06, 6.89773788e-06,
          -1.60355448e-05, -5.29323006e-06, 2.75973139e-06,
          -1.15787668e-06, 1.83329939e-05, -2.40510017e-05,
          -1.87282585e-05, 7.93187610e-06, 2.11295373e-05,
          -8.54431983e-06, -3.39044855e-05, -2.45018382e-05,
          -1.24101289e-05, 3.26584995e-05, -4.78211587e-05,
          -5.00996903e-05, -2.35465031e-05, -2.15560103e-05,
          -1.86091711e-05, -5.42502930e-05, -7.73351374e-08,
          -4.37530247e-07, 2.93332937e-06, 5.03905039e-06,
          -2.44385524e-06, 3.23870978e-07, 1.14736771e-07,
          4.93920311e-07, 2.89656437e-05, 1.02151716e-05, 3.22220985e-05,
          5.97811450e-05, 4.20964898e-05, 9.40110738e-07, 6.80175617e-06,
          4.80955123e-06, -6.18067634e-06, -1.05237068e-05,
          -2.12762334e-05, 3.48632093e-05, 6.05410378e-06,
          -5.21454385e-05, -3.39372127e-05, -1.76754238e-05,
          -4.49743266e-06, 2.83853587e-05, -4.66829306e-06,
          -1.67746366e-05, -1.95871962e-05, -1.23032441e-05,
          5.35269419e-06, -4.35905640e-05, 5.76809862e-06,
          -1.08697429e-06, 1.65724813e-07, -2.71577323e-06,
          -2.66466282e-06, -1.28748604e-06, 3.07707154e-07,
          -6.45352088e-07, 2.79062824e-05, -3.44287650e-06,
          -2.24561586e-06, -4.89300874e-06, 7.75473666e-07,
          -1.99309443e-06, -4.27397936e-06, -4.62403341e-06,
          -1.05025283e-04, 3.60982949e-06, 2.95928603e-05,
          -4.83162148e-05, -9.02762113e-05, -1.66255340e-05,
          -6.84742372e-06, -3.89391389e-05, -4.37434355e-05,
          1.85293884e-05, 6.89480385e-06, -1.17473246e-05,
          -1.81154683e-05, -5.46236060e-06, -1.75810987e-06,
          -1.38936766e-05, 7.00774945e-06, 4.30736975e-07,
          3.86121519e-06, -2.98997520e-06, -3.92323864e-06,
          -1.88739091e-06, 1.29591729e-06, -6.27673842e-07,
          2.30864698e-05, 1.54671386e-06, 2.40508034e-05,
          -2.34578965e-05, -4.81866300e-06, 3.44409564e-05,
          3.93693790e-06, -1.23649979e-05, -3.74924712e-05,
          7.67297297e-06, 1.00128855e-04, 1.46610619e-05,
          -1.01502392e-05, 5.49743345e-05, 4.20386059e-05,
          6.10373390e-05, -9.46759519e-06, 1.13690148e-05,
          -9.83694372e-06, 5.40832934e-06, -2.68952608e-05,
          -7.39509801e-07, 3.03337038e-05, 4.88959413e-05,
          6.27195323e-06, 2.70141157e-07, 4.56307862e-06,
          -3.22079109e-06, -1.91261051e-06, -1.23125938e-06,
          3.37030292e-06, 4.57580057e-07, 3.05912617e-05,
          -9.58581768e-06, 3.37991196e-07, 3.74075498e-05,
          1.28149286e-05, -5.95690562e-06, -1.26435161e-05,
          -7.07853496e-06, 2.88707779e-05, 9.64585524e-07,
          -4.39970281e-05, -1.98201360e-05, 2.45966658e-05,
          -2.03658456e-05, -3.84243904e-05, -6.86153362e-05,
          -1.33791791e-05, 1.89590264e-05, 2.52475070e-06,
          2.91826404e-06, -1.25879014e-05, -6.51471964e-06,
          3.00158081e-06, -6.27291811e-05, 3.67887401e-06,
          2.29210627e-06, 1.70093444e-05, 1.68027964e-05, 7.56288864e-06,
          1.49656796e-06, 4.56787075e-06, 3.29772115e-06, 3.95589232e-05,
          7.98998008e-06, -4.36944049e-07, 5.97655016e-05,
          1.68783881e-05, -1.61930493e-05, -1.26845571e-05,
          1.19282277e-06, -3.57710887e-05, -2.03621994e-06,
          -2.16626595e-05, -4.74113995e-06, -4.03060039e-05,
          -4.63413890e-05, -2.15139935e-05, -4.45601399e-05,
          3.12221600e-05, 1.86505295e-05, -1.24631815e-05,
          -5.63094864e-06, -7.89873684e-06, 3.69471968e-06,
          1.97617210e-05, -1.32568312e-05, 2.21818063e-05,
          -1.71089653e-06, -1.35400307e-06, -2.50543781e-06,
          9.55263295e-06, -1.71469560e-06, -1.21430003e-06,
          -1.62520610e-06, -1.97922272e-05, -5.72631905e-07,
          1.34405846e-05, -1.71267548e-05, -4.14983588e-05,
          -4.32532443e-06, -5.46781075e-06, -1.47658775e-05,
          -1.24559883e-04, 1.88604190e-05, 3.39420694e-05,
          -3.76456410e-05, -6.81206002e-05, -1.59398987e-05,
          -2.95182213e-06, -3.88233748e-05, 3.15340458e-07,
          1.07546684e-05, -7.38525159e-07, -3.65976712e-06,
          -5.56605471e-07, -1.07711674e-06, -3.28923124e-06,
          -2.78621724e-06, 2.72080088e-05, 2.12568541e-08,
          5.33647562e-06, -8.38900360e-06, 3.63104550e-06,
          -4.96870371e-07, -9.56129114e-08, -1.31840045e-06,
          -9.08394554e-07, 3.94682365e-06, 7.73168940e-05,
          1.94457994e-06, -2.88333176e-05, 8.16733300e-05,
          2.37064323e-05, 1.33932172e-05, -7.90625654e-06,
          1.97747340e-05, 4.03662307e-05, 3.83937331e-05,
          -4.16919320e-05, 6.70658301e-06, 3.17098857e-05,
          7.01693934e-05, 6.89176431e-07, 1.70057660e-06,
          -1.26598770e-05, 1.85836268e-06, 7.66110225e-06,
          4.94082315e-06, 4.46851618e-06, 2.33462765e-06, 2.18011155e-05,
          6.04990305e-07, 8.11745758e-06, 4.72462807e-06,
          -1.58170005e-05, -2.26907673e-06, 2.70475584e-06,
          -1.78299189e-07, 1.52569301e-05, -1.95802168e-05,
          -2.09889204e-05, 2.34925828e-05, 7.47943795e-06,
          -6.45180944e-06, -2.86649210e-05, -1.77442580e-05,
          -8.53211168e-06, 3.72500035e-05, -5.52017773e-05,
          -4.46145459e-05, -1.83157699e-05, -2.41734579e-05,
          -2.30696969e-05, -4.44195357e-05, -2.65031613e-05,
          1.91194908e-06, 1.30132776e-05, 3.40060833e-05, 6.12681652e-06,
          4.87212128e-06, 2.49141485e-05, 9.59570934e-06, 1.90232622e-05,
          6.06237563e-06, 1.74932338e-05, 4.18143973e-05, 2.98972554e-05,
          1.19869628e-06, 5.75871400e-06, 3.60152490e-06, 2.79547567e-06,
          -8.06345815e-06, -2.16036751e-05, 4.04660786e-05,
          7.27605175e-06, -4.11067376e-05, -2.62971553e-05,
          -1.25280740e-05, -9.58539204e-06, 3.48843496e-05,
          -2.42131432e-06, -1.45063959e-05, -2.21171122e-05,
          -1.60885484e-05, 3.86113425e-06, -4.54189503e-05,
          1.64901212e-05, -6.53365532e-06, -1.05376230e-05,
          -2.05910128e-05, -5.42824637e-06, -3.45795547e-06,
          -3.35896993e-06, -6.40212329e-06, 2.52646350e-05,
          -1.53495705e-06, -7.65916525e-07, -2.77029517e-06,
          3.48737558e-06, -1.39622330e-06, -3.30429134e-06,
          -3.09043435e-06, -1.00422265e-04, 6.09159542e-06,
          3.46391644e-05, -3.99076926e-05, -8.38825654e-05,
          -1.54923073e-05, -6.78229162e-06, -3.83798906e-05,
          -5.39105749e-05, 2.75488765e-05, 1.19543156e-05,
          -1.58481034e-05, -2.52352056e-05, -6.33133504e-06,
          -1.96125120e-06, -1.72145883e-05, -3.02817057e-07,
          -1.03919206e-06, -6.53251789e-07, -2.75237176e-06,
          -2.49313445e-07, -1.68125371e-06, -5.04228956e-06,
          -2.71344629e-06, 2.58266737e-05, 2.08603797e-06,
          1.68076858e-05, -1.84549081e-05, 9.65599520e-06,
          2.55313080e-05, 2.82332189e-06, -9.33499905e-06,
          -4.77297945e-05, 6.28042699e-06, 9.54568895e-05,
          2.71363242e-05, -2.38709490e-05, 5.74333535e-05,
          4.12675508e-05, 7.15129718e-05, -3.16747219e-06,
          1.60014843e-05, -8.16879765e-06, -9.39731876e-07,
          -3.22939668e-05, -1.48776644e-06, 3.05794929e-05,
          5.94946578e-05, -2.25676808e-06, -3.09935285e-06,
          -5.18066463e-06, -2.53996291e-06, 1.34372488e-06,
          -1.54310464e-06, -5.26755730e-06, -3.57894510e-06,
          3.51627386e-05, -6.29443275e-06, 1.48631989e-06,
          3.11431540e-05, 1.26827554e-05, -4.61805303e-06,
          -8.87729766e-06, -5.18296065e-06, 3.35432560e-05,
          1.85865645e-06, -4.15221984e-05, -1.75521873e-05,
          2.31903286e-05, -2.09437567e-05, -3.67742177e-05,
          -6.52194649e-05, -1.99325787e-05, 2.18876357e-05,
          -3.46079946e-06, -1.54352074e-06, -1.62027918e-05,
          -9.63593084e-06, 6.22477501e-07, -7.29142121e-05,
          3.16322030e-06, 2.13555677e-06, 2.58188743e-06, 2.28139488e-05,
          3.28683768e-06, 4.06288609e-06, 3.65982378e-05, 2.97665119e-05,
          3.12606535e-05, 5.35178197e-06, -1.62367560e-05,
          5.41515401e-05, 2.17796314e-05, -1.00378711e-05,
          -8.46242710e-06, 5.55998611e-07, -3.37657912e-05,
          3.86310347e-07, -2.02401043e-05, 1.41130488e-06,
          -3.85388121e-05, -4.53635585e-05, -1.98477992e-05,
          -3.88551853e-05, 3.09892021e-05, 2.59337939e-05,
          -1.45252225e-05, -5.89903902e-06, -9.13290478e-06,
          2.41060388e-06, 1.97371974e-05, -1.64389439e-05,
          -1.73766068e-07, -7.20340176e-06, -1.88677459e-05,
          -2.09402406e-05, -1.92487255e-06, -8.07552988e-06,
          -2.60031884e-05, -1.72031250e-05, -1.42777235e-05,
          4.70311392e-07, 1.40812035e-05, -9.72983162e-06,
          -2.96371545e-05, -2.41393195e-06, -3.32895320e-06,
          -1.15854273e-05, -1.28976448e-04, 2.62115809e-05,
          4.32665620e-05, -3.92841321e-05, -7.32116605e-05,
          -1.62526885e-05, -3.97707618e-06, -4.26151310e-05,
          -3.06976153e-06, 1.44717560e-05, 8.60479417e-07,
          -4.18154377e-06, -1.43756631e-06, -1.95732196e-06,
          -4.95809900e-06, -3.73668558e-06, -7.86718090e-07,
          -6.16934983e-07, 5.13047326e-07, -1.47720687e-06,
          -1.68249287e-07, -4.50941485e-07, -2.75101161e-06,
          -1.11451300e-06, -1.50205346e-06, 3.30238959e-06,
          6.18064223e-05, 6.99125621e-06, -2.16813132e-05,
          7.16234790e-05, 1.90181181e-05, 3.34568995e-06,
          -1.58777698e-06, 2.27460168e-05, 3.93985138e-05,
          4.11806868e-05, -3.30595540e-05, 9.48855995e-06,
          2.89967866e-05, 6.58868303e-05, -1.68834219e-06,
          2.81928783e-06, -1.66393456e-05, 2.27308783e-06,
          7.81857216e-06, 7.33656316e-06, 8.62999786e-06, 8.39693257e-06,
          -9.02392514e-07, -1.00174066e-06, -2.42766600e-06,
          -2.13489011e-06, -9.99836402e-07, -2.00420254e-06,
          -2.92133586e-06, -1.33744618e-06, 1.27366484e-05,
          -1.62691358e-05, -2.24997057e-05, 3.52204115e-05,
          5.67843608e-06, -7.00580722e-06, -2.26865723e-05,
          -1.28420124e-05, -4.24970403e-06, 3.95195348e-05,
          -5.28011478e-05, -3.67999637e-05, -1.15464863e-05,
          -2.58163309e-05, -2.77233976e-05, -3.75389682e-05,
          -3.22678497e-05, 4.85492001e-06, 1.00033469e-06,
          3.23018576e-05, 5.57793692e-06, 5.07290497e-06, 2.99632211e-05,
          6.09844619e-06, 1.77575350e-06, -2.04725112e-07,
          2.98179257e-05, 8.19403795e-06, -4.85284943e-07,
          1.73906642e-06, 2.39975670e-05, 1.47306728e-05, 6.16623947e-06,
          -6.70061036e-06, -2.40215049e-05, 4.09859313e-05,
          5.19372634e-06, -3.28857677e-05, -1.95414705e-05,
          -8.39844688e-06, -1.46344419e-05, 4.04859311e-05,
          -7.56932025e-07, -1.12993148e-05, -2.50462563e-05,
          -1.92767257e-05, 2.95853647e-06, -4.86768622e-05,
          2.59461922e-05, -4.94165988e-06, -9.23288007e-06,
          -1.28190713e-05, -7.53229915e-06, -3.99011242e-06,
          -6.51051687e-06, -5.25380528e-06, 2.78180869e-06,
          -2.00667910e-06, -2.94618276e-05, -1.06044708e-05,
          1.55348164e-06, -4.26428051e-06, -1.52918183e-05,
          -1.93684991e-05, -9.65513100e-05, 8.51415734e-06,
          4.23152451e-05, -3.01095952e-05, -7.68706595e-05,
          -1.27050853e-05, -7.35272442e-06, -3.78362747e-05,
          -6.52232702e-05, 4.26250808e-05, 2.12061914e-05,
          -1.93595897e-05, -3.44196415e-05, -8.30810313e-06,
          -2.34146341e-06, -2.31826652e-05, -3.08929117e-07,
          -7.57251485e-07, 9.55351879e-07, -4.53252915e-06,
          -4.46204183e-07, -2.73445767e-06, -8.33815193e-06,
          -4.49015033e-06, 1.12737027e-07, -2.69710057e-07,
          3.62995223e-07, -4.36970168e-07, -3.76127662e-09,
          4.35319038e-07, -4.07956833e-07, -7.06933747e-07,
          -3.97265831e-05, 4.89097647e-06, 9.42495462e-05,
          4.16437906e-05, -2.48240940e-05, 6.37412377e-05,
          4.31441149e-05, 7.43292185e-05, 5.31840442e-06, 2.28517802e-05,
          -1.06973830e-05, -1.73815025e-07, -3.77680772e-05,
          -1.38622420e-06, 2.79057258e-05, 6.72626047e-05,
          -2.18371929e-06, -5.63922231e-06, -7.57201678e-06,
          -1.11816894e-06, 4.50627022e-06, -1.12390876e-06,
          -7.20148819e-06, -6.68886469e-06, -4.43425336e-07,
          3.80277896e-07, -5.37872097e-07, -9.15899591e-07,
          -3.55257612e-07, -7.17700630e-07, -5.74742558e-07,
          -7.90851402e-07, 4.12285262e-05, 5.84303370e-06,
          -3.61041421e-05, -1.68561528e-05, 2.87460425e-05,
          -2.13986787e-05, -3.69795089e-05, -5.67983589e-05,
          -1.35928940e-05, 2.86187278e-05, -1.12817115e-05,
          -9.81488301e-06, -1.92886600e-05, -1.23907848e-05,
          -3.97791200e-06, -6.13887823e-05, 3.52253142e-06,
          2.72425336e-06, -1.69768628e-05, 3.06031361e-05,
          5.65805840e-06, 6.69361134e-06, 2.85265869e-05, 4.08412052e-05,
          4.23173077e-07, -4.08970067e-07, 6.10826237e-06,
          8.71034274e-07, -5.84153064e-08, -1.39160846e-07,
          5.48056869e-06, 2.31441436e-06, -3.07320479e-05,
          4.13776934e-06, -1.94803215e-05, 9.33632691e-06,
          -3.36539597e-05, -4.41416814e-05, -1.76503818e-05,
          -3.63339059e-05, 3.12368466e-05, 4.04006969e-05,
          -1.75759869e-05, -1.17007612e-05, -1.44376618e-05,
          1.17517527e-06, 1.92527914e-05, -2.17949182e-05,
          -7.38650726e-07, -1.17078071e-05, -1.25476981e-05,
          -3.49341208e-05, -2.94244478e-06, -1.14566483e-05,
          -2.09027694e-05, -7.11649091e-06, 5.94998880e-07,
          -6.44539682e-07, -4.47617958e-06, -2.17355614e-06,
          -5.44441548e-07, -6.51828543e-07, -1.32459127e-06,
          -4.00512772e-06, -1.40084507e-04, 4.73644395e-05,
          6.11697251e-05, -4.07667321e-05, -8.64680696e-05,
          -1.99114165e-05, -4.91385981e-06, -5.34735518e-05,
          -6.09452445e-06, 2.63207694e-05, 3.87175533e-06,
          -4.71770545e-06, -3.72720365e-06, -2.43627596e-06,
          -5.17146100e-06, -5.58981583e-06, -5.68388600e-07,
          -3.62885402e-07, 2.53093481e-06, -1.39234351e-06,
          1.15598645e-07, -1.07787253e-06, -4.90554703e-06,
          -3.40560337e-06, 0., 0., 0., 0., 0., 0., 0., 0.,
          9.40015468e-07, 2.91570577e-05, 4.00271383e-05, 3.50739683e-05,
          -1.82360509e-05, 1.12844591e-05, 2.48251927e-05,
          6.03251065e-05, 8.32336070e-07, 7.33795241e-06,
          -1.98723628e-05, 6.90343995e-06, 7.18676210e-06,
          1.20386576e-05, 1.59630199e-05, 2.27033233e-05,
          -2.11806014e-06, -2.22905715e-06, -3.86196189e-06,
          -3.45192848e-06, -2.35298694e-06, -3.91404683e-06,
          -5.85267117e-06, -2.04212961e-06, 0., 0., 0., 0., 0., 0., 0.,
          0., 8.07817742e-07, 4.84081538e-05, -4.90776401e-05,
          -3.00483407e-05, -9.57213729e-07, -3.13181808e-05,
          -3.72391514e-05, -3.28979004e-05, -3.81079335e-05,
          8.24222025e-06, -1.10383016e-05, 2.35663611e-05,
          2.12687655e-06, 4.66123220e-06, 3.54651274e-05,
          -6.51352684e-06, 2.80531526e-06, 8.83388850e-07,
          1.36116341e-05, 1.08192335e-05, 3.92499089e-07, 1.80495510e-06,
          3.61995626e-05, 2.38915582e-05, 0., 0., 0., 0., 0., 0., 0., 0.,
          -1.19373717e-05, 6.01269712e-05, 2.73519049e-06,
          -7.51511107e-06, -3.11615695e-05, -2.46531945e-05,
          -1.35612822e-07, -5.53827376e-05, 4.31303524e-05,
          4.08766664e-06, -1.01678379e-05, -1.38623209e-05,
          -1.14577915e-05, -6.29378519e-06, -5.59932278e-06,
          -5.38152017e-06, 3.86206329e-06, -3.00188276e-06,
          -4.79027913e-05, -1.81771175e-05, -1.76351222e-07,
          -6.87414513e-06, -2.63589664e-05, -3.17545673e-05, 0., 0., 0.,
          0., 0., 0., 0., 0., 0., 0., 0., 0., 0., 0., 0., 0.,
          1.03763305e-05, -1.91848881e-06, -6.29946271e-07,
          -4.44951775e-06, -6.12901249e-06, -3.40631846e-06,
          -1.96582482e-06, -6.52488723e-07, 2.05433298e-05,
          -3.96876658e-06, 1.02820350e-05, -7.11381881e-06,
          -5.43677197e-06, 1.27840813e-05, -5.91161233e-06,
          -5.74907972e-06, -1.12181791e-04, 3.14692697e-05,
          1.03920538e-04, 2.61050218e-06, -7.41123367e-05,
          1.43874067e-05, 3.08411327e-05, 8.61827721e-06, 0., 0., 0., 0.,
          0., 0., 0., 0., 1.24999206e-05, 6.53654524e-07, 8.78427454e-06,
          -4.50888501e-06, -9.03194723e-06, -4.78546417e-06,
          4.45063961e-06, 2.70946458e-07, 2.77026193e-05,
          -5.94068797e-06, 3.42669737e-05, -2.44310140e-05,
          -2.65950257e-06, 4.43573590e-05, 7.66843004e-06,
          -1.89425391e-05, 8.83435587e-06, -1.35086430e-05,
          2.12211417e-05, 2.46344803e-06, -1.07254846e-06,
          4.56701418e-05, 1.68278875e-05, 1.58667535e-05, 0., 0., 0., 0.,
          0., 0., 0., 0., 1.11083691e-05, 2.56858857e-06, 1.96949495e-05,
          9.90744593e-06, 7.02896023e-06, -3.16124186e-07,
          8.36650270e-06, 3.19047513e-06, 4.20721699e-05, 2.21804299e-07,
          -1.17557865e-05, 5.16679356e-05, 1.50808482e-05,
          -4.53328212e-05, -3.48796129e-05, 1.51120094e-06,
          1.09458842e-05, 6.84243832e-06, -5.17997360e-05,
          -1.29040218e-05, 1.66403734e-05, -7.02861216e-05,
          -5.52467027e-05, -9.84681974e-05, 0., 0., 0., 0., 0., 0., 0.,
          0., 3.28036822e-06, 4.31137005e-06, 2.33195933e-05,
          2.66074094e-05, 1.08183558e-05, 2.28824206e-06, 9.60851503e-06,
          5.12029328e-06, 2.76950286e-05, 1.42645740e-06,
          -1.04857636e-05, 4.77205576e-05, 1.13698388e-05,
          -4.78935635e-06, -2.12017289e-06, 3.27668090e-06,
          -4.00485442e-05, -1.05814406e-05, -2.87096736e-05,
          -1.50241312e-05, -3.53480100e-05, -2.04912285e-05,
          -5.20329377e-06, -1.26472396e-05, -2.16282515e-07,
          -1.06226025e-06, 3.20469979e-07, -7.33282718e-07,
          -5.62603191e-06, -1.50944402e-06, 1.55301649e-07,
          -6.10032771e-07, 3.11616313e-05, -2.49906930e-06,
          -2.30157184e-06, -6.26520114e-06, 1.44846190e-05,
          -1.83878444e-06, -4.63929518e-06, -2.31094873e-06,
          -4.17986885e-05, 7.41985377e-06, 6.19131970e-05,
          9.87526892e-06, -4.61327945e-05, 2.98085342e-05,
          9.34610216e-06, -1.54407337e-06, -7.17398143e-05,
          5.05731514e-05, 6.63100291e-05, 1.32204141e-05,
          -5.60887420e-05, 2.13312660e-06, 3.47721725e-05,
          1.16755918e-05, -4.46440595e-07, -1.39468042e-07,
          2.36960091e-06, -1.55135240e-06, -7.59522345e-06,
          -9.22914921e-07, 1.22748122e-06, -6.00131642e-08,
          3.32431046e-05, 6.58734677e-07, 1.13671258e-05,
          -1.03534185e-05, -1.61415664e-05, 3.20035610e-07,
          3.15718353e-06, -2.55147302e-06, 1.63501954e-05,
          -9.73396254e-06, 4.29135143e-05, -1.55037433e-05,
          1.02045739e-07, 8.13118677e-05, 1.57542017e-05, 6.54442616e-08,
          -5.17543003e-06, -4.82583664e-06, -1.66176542e-05,
          -1.12302077e-05, -5.19472778e-05, -1.05449171e-05,
          1.50231772e-05, 3.40738843e-05, -7.99854774e-07,
          -7.90658135e-08, 1.08533129e-06, 1.02262538e-06,
          -5.76258299e-06, -4.58199850e-07, 2.17920001e-06,
          2.04832233e-07, 3.92067705e-05, 6.76787022e-06, 2.70873606e-05,
          4.77166905e-05, 9.80900950e-06, -5.90240506e-06,
          2.97088445e-06, 3.92560969e-06, 5.95119809e-06,
          -1.25936140e-05, -2.46456730e-05, 1.72086493e-05,
          2.50048379e-05, -7.19499658e-05, -5.90572345e-05,
          -2.38128250e-05, 1.21839946e-06, 5.49029210e-05,
          -3.14263198e-05, -2.91374345e-05, -4.97207452e-07,
          -2.22365361e-05, -1.74382130e-05, -1.06756161e-04,
          7.75999780e-08, -2.03349174e-07, 1.28868294e-06,
          4.11868268e-06, 3.41583302e-07, 7.35716242e-07, 1.11605311e-06,
          1.29333300e-08, 1.56519636e-05, 7.80633309e-06, 1.90550800e-05,
          4.41078337e-05, 2.61566711e-05, 3.91936419e-06, 8.43330417e-06,
          6.27172494e-06, -7.54511666e-06, -1.43207799e-05,
          -3.80005658e-05, 8.17734417e-06, -1.53750607e-05,
          -1.70639141e-05, -8.57936720e-06, -4.00606314e-06,
          -4.21877849e-06, 1.21704197e-05, -1.49701100e-06,
          -2.30000769e-05, -1.71608735e-05, -2.86411523e-06,
          8.68574080e-06, -8.23743630e-06, 5.14856902e-06,
          -4.39959905e-07, -2.52953697e-07, -2.91359220e-06,
          -2.37206837e-06, -2.31763534e-06, -3.15432288e-07,
          -1.54357394e-06, 2.19233589e-05, -1.94872769e-06,
          6.87877537e-06, -5.29161389e-06, 2.26723682e-06,
          9.14486009e-06, -4.66241681e-06, -4.92217305e-06,
          -1.11779678e-04, 2.91649849e-05, 9.76736555e-05,
          9.75304192e-06, -7.39395909e-05, 1.69094510e-05,
          2.89431810e-05, 9.00499799e-06, -2.33042338e-05,
          4.05611863e-05, 9.32643979e-06, -1.13759586e-06,
          -1.98883663e-05, 2.52489099e-06, 1.78746468e-05,
          8.41002293e-06, 6.12586291e-06, -4.92222902e-08,
          5.53152768e-06, -1.68498923e-06, -4.01492980e-06,
          -2.33105288e-06, 3.58823308e-06, 5.69502106e-07,
          2.90794087e-05, -3.16594401e-06, 2.18291225e-05,
          -1.74643483e-05, -2.63357174e-06, 3.18688144e-05,
          4.90874118e-06, -1.50682472e-05, 1.21139392e-05,
          -1.23542432e-05, 1.91545405e-05, 7.53813720e-06,
          -8.75637761e-06, 4.10993271e-05, 1.38036594e-05,
          1.87376845e-05, -3.59311525e-05, -6.81768506e-06,
          -4.01866328e-06, -8.19996330e-06, -3.43771098e-05,
          -9.82174970e-06, 1.99413353e-05, 1.71901484e-05,
          4.63017022e-06, 8.84613712e-07, 1.07340729e-05, 6.45345835e-06,
          5.92828292e-06, 4.63579909e-07, 4.45921887e-06, 1.53921405e-06,
          4.40344411e-05, 3.64378320e-06, -9.21341598e-06,
          7.14705093e-05, 1.70212861e-05, -3.07856280e-05,
          -2.48608994e-05, 1.01031924e-06, 5.50081177e-06,
          1.04741293e-05, -4.14207461e-05, -1.37444758e-05,
          1.22675428e-05, -6.55259719e-05, -4.85864111e-05,
          -8.17756663e-05, 3.34202705e-05, 3.68312612e-05,
          -1.19719480e-05, -1.72196214e-05, 8.69963515e-06,
          1.37098448e-06, 8.20171135e-06, -5.65054652e-05,
          1.73691228e-06, 1.68747215e-06, 1.20878158e-05, 1.47383162e-05,
          5.61781007e-06, 1.32541902e-06, 4.64342247e-06, 1.98692874e-06,
          1.98433245e-05, 9.07752309e-08, -2.44110597e-05,
          3.54354852e-05, 1.45044478e-05, -1.84235637e-06,
          -8.50625440e-07, 2.49803520e-06, -3.37272577e-05,
